{"learner":{"attributes":{},"feature_names":[],"feature_types":[],"gradient_booster":{"model":{"cats":{"enc":[],"feature_segments":[],"sorted_idx":[]},"gbtree_model_param":{"num_parallel_tree":"1","num_trees":"100"},"iteration_indptr":[0,1,2,3,4,5,6,7,8,9,10,11,12,13,14,15,16,17,18,19,20,21,22,23,24,25,26,27,28,29,30,31,32,33,34,35,36,37,38,39,40,41,42,43,44,45,46,47,48,49,50,51,52,53,54,55,56,57,58,59,60,61,62,63,64,65,66,67,68,69,70,71,72,73,74,75,76,77,78,79,80,81,82,83,84,85,86,87,88,89,90,91,92,93,94,95,96,97,98,99,100],"tree_info":[0,0,0,0,0,0,0,0,0,0,0,0,0,0,0,0,0,0,0,0,0,0,0,0,0,0,0,0,0,0,0,0,0,0,0,0,0,0,0,0,0,0,0,0,0,0,0,0,0,0,0,0,0,0,0,0,0,0,0,0,0,0,0,0,0,0,0,0,0,0,0,0,0,0,0,0,0,0,0,0,0,0,0,0,0,0,0,0,0,0,0,0,0,0,0,0,0,0,0,0],"trees":[{"base_weights":[1.4786604E-8,-3.0754057E-1,4.4058907E-1,-5.581693E-1,2.4217905E-2,2.64047E-1,9.221998E-1,-6.8510696E-3,-3.872747E-3,-6.4784614E-4,6.148481E-3,1.6066673E-3,4.9427184E-3,7.246523E-3,1.2692447E-2],"categories":[],"categories_nodes":[],"categories_segments":[],"categories_sizes":[],"default_left":[0,0,0,0,0,0,0,0,0,0,0,0,0,0,0],"id":0,"left_children":[1,3,5,7,9,11,13,-1,-1,-1,-1,-1,-1,-1,-1],"loss_changes":[4.7148916E3,1.7039183E3,1.2159575E3,2.52969E2,4.6367526E2,2.4908069E2,2.62104E2,0E0,0E0,0E0,0E0,0E0,0E0,0E0,0E0],"parents":[2147483647,0,0,1,1,2,2,3,3,4,4,5,5,6,6],"right_children":[2,4,6,8,10,12,14,-1,-1,-1,-1,-1,-1,-1,-1],"split_conditions":[2.7871406E-1,-3.3062065E-1,1.8560661E0,8.1059873E-1,3.4307346E0,1.0673901E0,3.433418E0,-6.8510696E-3,-3.872747E-3,-6.4784614E-4,6.148481E-3,1.6066673E-3,4.9427184E-3,7.246523E-3,1.2692447E-2],"split_indices":[9,1,9,10,1,9,9,0,0,0,0,0,0,0,0],"split_type":[0,0,0,0,0,0,0,0,0,0,0,0,0,0,0],"sum_hessian":[3.47945E4,2.049138E4,1.4303119E4,1.1672582E4,8.818799E3,1.0467602E4,3.835518E3,6.69594E3,4.9766426E3,7.6646904E3,1.1541079E3,7.224988E3,3.2426135E3,2.4461758E3,1.3893422E3],"tree_param":{"num_deleted":"0","num_feature":"2355","num_nodes":"15","size_leaf_vector":"1"}},{"base_weights":[5.995028E-7,-3.0446708E-1,4.361885E-1,-5.525932E-1,2.3976298E-2,2.6140776E-1,9.1300404E-1,-6.78265E-3,-3.8340413E-3,-6.413694E-4,6.0871053E-3,1.5906035E-3,4.893337E-3,7.1741818E-3,1.2566121E-2],"categories":[],"categories_nodes":[],"categories_segments":[],"categories_sizes":[],"default_left":[0,0,0,0,0,0,0,0,0,0,0,0,0,0,0],"id":1,"left_children":[1,3,5,7,9,11,13,-1,-1,-1,-1,-1,-1,-1,-1],"loss_changes":[4.621124E3,1.6700386E3,1.1918313E3,2.4794507E2,4.5445938E2,2.4412927E2,2.569253E2,0E0,0E0,0E0,0E0,0E0,0E0,0E0,0E0],"parents":[2147483647,0,0,1,1,2,2,3,3,4,4,5,5,6,6],"right_children":[2,4,6,8,10,12,14,-1,-1,-1,-1,-1,-1,-1,-1],"split_conditions":[2.7871406E-1,-3.3062065E-1,1.8560661E0,8.1059873E-1,3.4307346E0,1.0673901E0,3.433418E0,-6.78265E-3,-3.8340413E-3,-6.413694E-4,6.0871053E-3,1.5906035E-3,4.893337E-3,7.1741818E-3,1.2566121E-2],"split_indices":[9,1,9,10,1,9,9,0,0,0,0,0,0,0,0],"split_type":[0,0,0,0,0,0,0,0,0,0,0,0,0,0,0],"sum_hessian":[3.4794277E4,2.0491271E4,1.4303007E4,1.1672485E4,8.818787E3,1.0467577E4,3.83543E3,6.6958613E3,4.976624E3,7.6646895E3,1.154097E3,7.2249834E3,3.2425938E3,2.4461438E3,1.3892863E3],"tree_param":{"num_deleted":"0","num_feature":"2355","num_nodes":"15","size_leaf_vector":"1"}},{"base_weights":[1.3388518E-6,-3.0142727E-1,4.3183866E-1,-5.4708153E-1,2.3737406E-2,2.587962E-1,9.0394086E-1,-7.3042708E-3,-4.322612E-3,-6.3495524E-4,6.026458E-3,1.574704E-3,4.8445067E-3,7.1027456E-3,1.244204E-2],"categories":[],"categories_nodes":[],"categories_segments":[],"categories_sizes":[],"default_left":[0,0,0,0,0,0,0,0,0,0,0,0,0,0,0],"id":2,"left_children":[1,3,5,7,9,11,13,-1,-1,-1,-1,-1,-1,-1,-1],"loss_changes":[4.5292812E3,1.6368708E3,1.1682869E3,2.4542578E2,4.4543472E2,2.3928217E2,2.5190991E2,0E0,0E0,0E0,0E0,0E0,0E0,0E0,0E0],"parents":[2147483647,0,0,1,1,2,2,3,3,4,4,5,5,6,6],"right_children":[2,4,6,8,10,12,14,-1,-1,-1,-1,-1,-1,-1,-1],"split_conditions":[2.7871406E-1,-3.3062065E-1,1.8560661E0,-8.256063E-2,3.4307346E0,1.0673901E0,3.433418E0,-7.3042708E-3,-4.322612E-3,-6.3495524E-4,6.026458E-3,1.574704E-3,4.8445067E-3,7.1027456E-3,1.244204E-2],"split_indices":[9,1,9,13,1,9,9,0,0,0,0,0,0,0,0],"split_type":[0,0,0,0,0,0,0,0,0,0,0,0,0,0,0],"sum_hessian":[3.4793625E4,2.049095E4,1.4302674E4,1.1672197E4,8.818753E3,1.0467505E4,3.8351692E3,4.4927666E3,7.1794307E3,7.664688E3,1.1540647E3,7.2249697E3,3.242535E3,2.4460488E3,1.3891206E3],"tree_param":{"num_deleted":"0","num_feature":"2355","num_nodes":"15","size_leaf_vector":"1"}},{"base_weights":[1.785012E-6,-2.9842097E-1,4.2753854E-1,-5.4163295E-1,2.3500636E-2,2.5621167E-1,8.95007E-1,-6.6592735E-3,-3.7430644E-3,-6.286086E-4,5.966519E-3,1.5589633E-3,4.796218E-3,7.0321998E-3,1.2320129E-2],"categories":[],"categories_nodes":[],"categories_segments":[],"categories_sizes":[],"default_left":[0,0,0,0,0,0,0,0,0,0,0,0,0,0,0],"id":3,"left_children":[1,3,5,7,9,11,13,-1,-1,-1,-1,-1,-1,-1,-1],"loss_changes":[4.4393237E3,1.6043942E3,1.1453069E3,2.4251709E2,4.3659653E2,2.3453705E2,2.4705078E2,0E0,0E0,0E0,0E0,0E0,0E0,0E0,0E0],"parents":[2147483647,0,0,1,1,2,2,3,3,4,4,5,5,6,6],"right_children":[2,4,6,8,10,12,14,-1,-1,-1,-1,-1,-1,-1,-1],"split_conditions":[2.7871406E-1,-3.3062065E-1,1.8560661E0,8.1059873E-1,3.4307346E0,1.0673901E0,3.433418E0,-6.6592735E-3,-3.7430644E-3,-6.286086E-4,5.966519E-3,1.5589633E-3,4.796218E-3,7.0321998E-3,1.2320129E-2],"split_indices":[9,1,9,10,1,9,9,0,0,0,0,0,0,0,0],"split_type":[0,0,0,0,0,0,0,0,0,0,0,0,0,0,0],"sum_hessian":[3.4792566E4,2.0490441E4,1.4302127E4,1.1671746E4,8.818695E3,1.0467386E4,3.8347412E3,6.6953164E3,4.97643E3,7.664683E3,1.1540117E3,7.224947E3,3.2424387E3,2.4458926E3,1.3888486E3],"tree_param":{"num_deleted":"0","num_feature":"2355","num_nodes":"15","size_leaf_vector":"1"}},{"base_weights":[2.4743622E-6,-2.9544732E-1,4.2328748E-1,-5.3624713E-1,2.3266727E-2,2.5365415E-1,8.861992E-1,-7.175899E-3,-4.2268634E-3,-6.223209E-4,5.9072827E-3,1.5433818E-3,4.748467E-3,6.9625215E-3,1.2200327E-2],"categories":[],"categories_nodes":[],"categories_segments":[],"categories_sizes":[],"default_left":[0,0,0,0,0,0,0,0,0,0,0,0,0,0,0],"id":4,"left_children":[1,3,5,7,9,11,13,-1,-1,-1,-1,-1,-1,-1,-1],"loss_changes":[4.351206E3,1.572599E3,1.1228726E3,2.4006543E2,4.2794073E2,2.2989215E2,2.4233984E2,0E0,0E0,0E0,0E0,0E0,0E0,0E0,0E0],"parents":[2147483647,0,0,1,1,2,2,3,3,4,4,5,5,6,6],"right_children":[2,4,6,8,10,12,14,-1,-1,-1,-1,-1,-1,-1,-1],"split_conditions":[2.7871406E-1,-3.3062065E-1,1.8560661E0,-8.256063E-2,3.4307346E0,1.0673901E0,3.433418E0,-7.175899E-3,-4.2268634E-3,-6.223209E-4,5.9072827E-3,1.5433818E-3,4.748467E-3,6.9625215E-3,1.2200327E-2],"split_indices":[9,1,9,13,1,9,9,0,0,0,0,0,0,0,0],"split_type":[0,0,0,0,0,0,0,0,0,0,0,0,0,0,0],"sum_hessian":[3.4791094E4,2.0489723E4,1.4301372E4,1.1671105E4,8.818617E3,1.0467222E4,3.8341506E3,4.492233E3,7.178872E3,7.6646787E3,1.1539386E3,7.2249155E3,3.242306E3,2.4456772E3,1.3884735E3],"tree_param":{"num_deleted":"0","num_feature":"2355","num_nodes":"15","size_leaf_vector":"1"}},{"base_weights":[3.060844E-6,-2.9250607E-1,4.1908473E-1,-5.3092194E-1,2.3034764E-2,2.511233E-1,8.775143E-1,-6.5387073E-3,-3.6542036E-3,-6.161014E-4,5.8487337E-3,1.5279595E-3,4.701242E-3,6.8936977E-3,1.2082562E-2],"categories":[],"categories_nodes":[],"categories_segments":[],"categories_sizes":[],"default_left":[0,0,0,0,0,0,0,0,0,0,0,0,0,0,0],"id":5,"left_children":[1,3,5,7,9,11,13,-1,-1,-1,-1,-1,-1,-1,-1],"loss_changes":[4.264892E3,1.5414606E3,1.100967E3,2.3725171E2,4.194638E2,2.25344E2,2.3777173E2,0E0,0E0,0E0,0E0,0E0,0E0,0E0,0E0],"parents":[2147483647,0,0,1,1,2,2,3,3,4,4,5,5,6,6],"right_children":[2,4,6,8,10,12,14,-1,-1,-1,-1,-1,-1,-1,-1],"split_conditions":[2.7871406E-1,-3.3062065E-1,1.8560661E0,8.1059873E-1,3.4307346E0,1.0673901E0,3.433418E0,-6.5387073E-3,-3.6542036E-3,-6.161014E-4,5.8487337E-3,1.5279595E-3,4.701242E-3,6.8936977E-3,1.2082562E-2],"split_indices":[9,1,9,10,1,9,9,0,0,0,0,0,0,0,0],"split_type":[0,0,0,0,0,0,0,0,0,0,0,0,0,0,0],"sum_hessian":[3.4789246E4,2.0488828E4,1.4300417E4,1.1670311E4,8.818518E3,1.0467014E4,3.8334028E3,6.6942744E3,4.976036E3,7.6646714E3,1.153846E3,7.224876E3,3.242138E3,2.4454045E3,1.3879983E3],"tree_param":{"num_deleted":"0","num_feature":"2355","num_nodes":"15","size_leaf_vector":"1"}},{"base_weights":[3.6694773E-6,-2.895968E-1,4.149293E-1,-5.256577E-1,2.2805484E-2,2.4861859E-1,8.689492E-1,-7.0504565E-3,-4.133304E-3,-6.099402E-4,5.7908576E-3,1.5126908E-3,4.6545365E-3,6.8257074E-3,1.1966775E-2],"categories":[],"categories_nodes":[],"categories_segments":[],"categories_sizes":[],"default_left":[0,0,0,0,0,0,0,0,0,0,0,0,0,0,0],"id":6,"left_children":[1,3,5,7,9,11,13,-1,-1,-1,-1,-1,-1,-1,-1],"loss_changes":[4.1803384E3,1.5109736E3,1.0795735E3,2.3486792E2,4.1116046E2,2.2089136E2,2.3333936E2,0E0,0E0,0E0,0E0,0E0,0E0,0E0,0E0],"parents":[2147483647,0,0,1,1,2,2,3,3,4,4,5,5,6,6],"right_children":[2,4,6,8,10,12,14,-1,-1,-1,-1,-1,-1,-1,-1],"split_conditions":[2.7871406E-1,-3.3062065E-1,1.8560661E0,-8.256063E-2,3.4307346E0,1.0673901E0,3.433418E0,-7.0504565E-3,-4.133304E-3,-6.099402E-4,5.7908576E-3,1.5126908E-3,4.6545365E-3,6.8257074E-3,1.1966775E-2],"split_indices":[9,1,9,13,1,9,9,0,0,0,0,0,0,0,0],"split_type":[0,0,0,0,0,0,0,0,0,0,0,0,0,0,0],"sum_hessian":[3.4787E4,2.0487734E4,1.4299266E4,1.1669336E4,8.818397E3,1.0466764E4,3.8325024E3,4.4913403E3,7.177996E3,7.664663E3,1.1537344E3,7.224828E3,3.2419353E3,2.4450762E3,1.3874263E3],"tree_param":{"num_deleted":"0","num_feature":"2355","num_nodes":"15","size_leaf_vector":"1"}},{"base_weights":[4.3204564E-6,-2.8671885E-1,4.1082078E-1,-5.2045214E-1,2.25783E-2,2.4614008E-1,8.605013E-1,-6.4208554E-3,-3.5673992E-3,-6.038435E-4,5.733646E-3,1.4975794E-3,4.6083443E-3,6.75854E-3,1.1852908E-2],"categories":[],"categories_nodes":[],"categories_segments":[],"categories_sizes":[],"default_left":[0,0,0,0,0,0,0,0,0,0,0,0,0,0,0],"id":7,"left_children":[1,3,5,7,9,11,13,-1,-1,-1,-1,-1,-1,-1,-1],"loss_changes":[4.0975107E3,1.4811135E3,1.058677E3,2.3213867E2,4.0302792E2,2.1653131E2,2.2903662E2,0E0,0E0,0E0,0E0,0E0,0E0,0E0,0E0],"parents":[2147483647,0,0,1,1,2,2,3,3,4,4,5,5,6,6],"right_children":[2,4,6,8,10,12,14,-1,-1,-1,-1,-1,-1,-1,-1],"split_conditions":[2.7871406E-1,-3.3062065E-1,1.8560661E0,8.1059873E-1,3.4307346E0,1.0673901E0,3.433418E0,-6.4208554E-3,-3.5673992E-3,-6.038435E-4,5.733646E-3,1.4975794E-3,4.6083443E-3,6.75854E-3,1.1852908E-2],"split_indices":[9,1,9,10,1,9,9,0,0,0,0,0,0,0,0],"split_type":[0,0,0,0,0,0,0,0,0,0,0,0,0,0,0],"sum_hessian":[3.4784402E4,2.0486477E4,1.4297927E4,1.1668219E4,8.818259E3,1.0466472E4,3.831454E3,6.6927646E3,4.975454E3,7.664654E3,1.1536045E3,7.2247725E3,3.2416995E3,2.4446938E3,1.3867603E3],"tree_param":{"num_deleted":"0","num_feature":"2355","num_nodes":"15","size_leaf_vector":"1"}},{"base_weights":[4.8805164E-6,-2.838722E-1,4.0675804E-1,-5.1530576E-1,2.2353547E-2,2.4368693E-1,8.521677E-1,-6.9278404E-3,-4.0418715E-3,-5.97807E-4,5.6770896E-3,1.4826187E-3,4.5626503E-3,6.6921795E-3,1.17409015E-2],"categories":[],"categories_nodes":[],"categories_segments":[],"categories_sizes":[],"default_left":[0,0,0,0,0,0,0,0,0,0,0,0,0,0,0],"id":8,"left_children":[1,3,5,7,9,11,13,-1,-1,-1,-1,-1,-1,-1,-1],"loss_changes":[4.01637E3,1.4518754E3,1.0382617E3,2.2982495E2,3.9506216E2,2.1226129E2,2.2485889E2,0E0,0E0,0E0,0E0,0E0,0E0,0E0,0E0],"parents":[2147483647,0,0,1,1,2,2,3,3,4,4,5,5,6,6],"right_children":[2,4,6,8,10,12,14,-1,-1,-1,-1,-1,-1,-1,-1],"split_conditions":[2.7871406E-1,-3.3062065E-1,1.8560661E0,-8.256063E-2,3.4307346E0,1.0673901E0,3.433418E0,-6.9278404E-3,-4.0418715E-3,-5.97807E-4,5.6770896E-3,1.4826187E-3,4.5626503E-3,6.6921795E-3,1.17409015E-2],"split_indices":[9,1,9,13,1,9,9,0,0,0,0,0,0,0,0],"split_type":[0,0,0,0,0,0,0,0,0,0,0,0,0,0,0],"sum_hessian":[3.4781434E4,2.048503E4,1.4296403E4,1.1666931E4,8.8181E3,1.0466142E4,3.8302625E3,4.4901084E3,7.1768228E3,7.664642E3,1.153457E3,7.2247095E3,3.2414314E3,2.4442593E3,1.3860033E3],"tree_param":{"num_deleted":"0","num_feature":"2355","num_nodes":"15","size_leaf_vector":"1"}},{"base_weights":[5.458376E-6,-2.8105578E-1,4.0274045E-1,-5.1021606E-1,2.2131113E-2,2.4125914E-1,8.439454E-1,-6.3056285E-3,-3.482592E-3,-5.9183006E-4,5.6211725E-3,1.4678075E-3,4.517458E-3,6.6266046E-3,1.1630697E-2],"categories":[],"categories_nodes":[],"categories_segments":[],"categories_sizes":[],"default_left":[0,0,0,0,0,0,0,0,0,0,0,0,0,0,0],"id":9,"left_children":[1,3,5,7,9,11,13,-1,-1,-1,-1,-1,-1,-1,-1],"loss_changes":[3.936875E3,1.4232367E3,1.018313E3,2.2717188E2,3.872589E2,2.080805E2,2.2080005E2,0E0,0E0,0E0,0E0,0E0,0E0,0E0,0E0],"parents":[2147483647,0,0,1,1,2,2,3,3,4,4,5,5,6,6],"right_children":[2,4,6,8,10,12,14,-1,-1,-1,-1,-1,-1,-1,-1],"split_conditions":[2.7871406E-1,-3.3062065E-1,1.8560661E0,8.1059873E-1,3.4307346E0,1.0673901E0,3.433418E0,-6.3056285E-3,-3.482592E-3,-5.9183006E-4,5.6211725E-3,1.4678075E-3,4.517458E-3,6.6266046E-3,1.1630697E-2],"split_indices":[9,1,9,10,1,9,9,0,0,0,0,0,0,0,0],"split_type":[0,0,0,0,0,0,0,0,0,0,0,0,0,0,0],"sum_hessian":[3.4778137E4,2.0483432E4,1.4294704E4,1.166551E4,8.817923E3,1.0465771E4,3.8289324E3,6.690813E3,4.9746973E3,7.6646304E3,1.1532921E3,7.224639E3,3.2411323E3,2.4437742E3,1.3851582E3],"tree_param":{"num_deleted":"0","num_feature":"2355","num_nodes":"15","size_leaf_vector":"1"}},{"base_weights":[6.058721E-6,-2.782698E-1,3.9876744E-1,-5.0518364E-1,2.1910952E-2,2.3885645E-1,8.358321E-1,-6.807953E-3,-3.9525013E-3,-5.859133E-4,5.5658906E-3,1.4531468E-3,4.4727535E-3,6.5618055E-3,1.15222465E-2],"categories":[],"categories_nodes":[],"categories_segments":[],"categories_sizes":[],"default_left":[0,0,0,0,0,0,0,0,0,0,0,0,0,0,0],"id":10,"left_children":[1,3,5,7,9,11,13,-1,-1,-1,-1,-1,-1,-1,-1],"loss_changes":[3.858996E3,1.3951906E3,9.988169E2,2.2492969E2,3.796154E2,2.039859E2,2.1685571E2,0E0,0E0,0E0,0E0,0E0,0E0,0E0,0E0],"parents":[2147483647,0,0,1,1,2,2,3,3,4,4,5,5,6,6],"right_children":[2,4,6,8,10,12,14,-1,-1,-1,-1,-1,-1,-1,-1],"split_conditions":[2.7871406E-1,-3.3062065E-1,1.8560661E0,-8.256063E-2,3.4307346E0,1.0673901E0,3.433418E0,-6.807953E-3,-3.9525013E-3,-5.859133E-4,5.5658906E-3,1.4531468E-3,4.4727535E-3,6.5618055E-3,1.15222465E-2],"split_indices":[9,1,9,13,1,9,9,0,0,0,0,0,0,0,0],"split_type":[0,0,0,0,0,0,0,0,0,0,0,0,0,0,0],"sum_hessian":[3.477449E4,2.0481656E4,1.4292832E4,1.1663929E4,8.817728E3,1.0465364E4,3.8274678E3,4.488556E3,7.1753726E3,7.6646167E3,1.1531107E3,7.2245615E3,3.2408027E3,2.44324E3,1.3842278E3],"tree_param":{"num_deleted":"0","num_feature":"2355","num_nodes":"15","size_leaf_vector":"1"}},{"base_weights":[6.7299966E-6,-2.755133E-1,3.9483842E-1,-5.002061E-1,2.1692969E-2,2.3647863E-1,8.278254E-1,-6.1929314E-3,-3.399724E-3,-5.800561E-4,5.511227E-3,1.4386359E-3,4.428531E-3,6.4977687E-3,1.1415499E-2],"categories":[],"categories_nodes":[],"categories_segments":[],"categories_sizes":[],"default_left":[0,0,0,0,0,0,0,0,0,0,0,0,0,0,0],"id":11,"left_children":[1,3,5,7,9,11,13,-1,-1,-1,-1,-1,-1,-1,-1],"loss_changes":[3.7826963E3,1.367717E3,9.7976025E2,2.2234448E2,3.721275E2,1.9997552E2,2.1302051E2,0E0,0E0,0E0,0E0,0E0,0E0,0E0,0E0],"parents":[2147483647,0,0,1,1,2,2,3,3,4,4,5,5,6,6],"right_children":[2,4,6,8,10,12,14,-1,-1,-1,-1,-1,-1,-1,-1],"split_conditions":[2.7871406E-1,-3.3062065E-1,1.8560661E0,8.1059873E-1,3.4307346E0,1.0673901E0,3.433418E0,-6.1929314E-3,-3.399724E-3,-5.800561E-4,5.511227E-3,1.4386359E-3,4.428531E-3,6.4977687E-3,1.1415499E-2],"split_indices":[9,1,9,10,1,9,9,0,0,0,0,0,0,0,0],"split_type":[0,0,0,0,0,0,0,0,0,0,0,0,0,0,0],"sum_hessian":[3.4770535E4,2.0479738E4,1.4290795E4,1.1662223E4,8.817516E3,1.0464922E4,3.825873E3,6.6884463E3,4.973777E3,7.664603E3,1.1529131E3,7.224477E3,3.240444E3,2.4426584E3,1.3832146E3],"tree_param":{"num_deleted":"0","num_feature":"2355","num_nodes":"15","size_leaf_vector":"1"}},{"base_weights":[7.2711755E-6,-2.7278653E-1,3.909525E-1,-4.9528432E-1,2.14771E-2,2.3412518E-1,8.199227E-1,-6.6906977E-3,-3.8651368E-3,-5.7425915E-4,5.4571778E-3,1.4242684E-3,4.384788E-3,6.4344797E-3,1.13104E-2],"categories":[],"categories_nodes":[],"categories_segments":[],"categories_sizes":[],"default_left":[0,0,0,0,0,0,0,0,0,0,0,0,0,0,0],"id":12,"left_children":[1,3,5,7,9,11,13,-1,-1,-1,-1,-1,-1,-1,-1],"loss_changes":[3.7079443E3,1.3408098E3,9.6112964E2,2.201731E2,3.6479245E2,1.9604834E2,2.092898E2,0E0,0E0,0E0,0E0,0E0,0E0,0E0,0E0],"parents":[2147483647,0,0,1,1,2,2,3,3,4,4,5,5,6,6],"right_children":[2,4,6,8,10,12,14,-1,-1,-1,-1,-1,-1,-1,-1],"split_conditions":[2.7871406E-1,-3.3062065E-1,1.8560661E0,-8.256063E-2,3.4307346E0,1.0673901E0,3.433418E0,-6.6906977E-3,-3.8651368E-3,-5.7425915E-4,5.4571778E-3,1.4242684E-3,4.384788E-3,6.4344797E-3,1.13104E-2],"split_indices":[9,1,9,13,1,9,9,0,0,0,0,0,0,0,0],"split_type":[0,0,0,0,0,0,0,0,0,0,0,0,0,0,0],"sum_hessian":[3.4766246E4,2.0477652E4,1.4288596E4,1.1660365E4,8.817287E3,1.0464443E4,3.8241526E3,4.4867026E3,7.1736626E3,7.664587E3,1.1527E3,7.2243857E3,3.2400571E3,2.442031E3,1.3821216E3],"tree_param":{"num_deleted":"0","num_feature":"2355","num_nodes":"15","size_leaf_vector":"1"}},{"base_weights":[7.930578E-6,-2.700883E-1,3.8710907E-1,-4.9041575E-1,2.126379E-2,2.317959E-1,8.1212145E-1,-6.0826885E-3,-3.3187447E-3,-5.6851574E-4,5.4037278E-3,1.4100472E-3,4.3415106E-3,6.3719223E-3,1.1206909E-2],"categories":[],"categories_nodes":[],"categories_segments":[],"categories_sizes":[],"default_left":[0,0,0,0,0,0,0,0,0,0,0,0,0,0,0],"id":13,"left_children":[1,3,5,7,9,11,13,-1,-1,-1,-1,-1,-1,-1,-1],"loss_changes":[3.6347002E3,1.3144514E3,9.4291284E2,2.1764893E2,3.576058E2,1.9220117E2,2.0565991E2,0E0,0E0,0E0,0E0,0E0,0E0,0E0,0E0],"parents":[2147483647,0,0,1,1,2,2,3,3,4,4,5,5,6,6],"right_children":[2,4,6,8,10,12,14,-1,-1,-1,-1,-1,-1,-1,-1],"split_conditions":[2.7871406E-1,-3.3062065E-1,1.8560661E0,8.1059873E-1,3.4307346E0,1.0673901E0,3.433418E0,-6.0826885E-3,-3.3187447E-3,-5.6851574E-4,5.4037278E-3,1.4100472E-3,4.3415106E-3,6.3719223E-3,1.1206909E-2],"split_indices":[9,1,9,10,1,9,9,0,0,0,0,0,0,0,0],"split_type":[0,0,0,0,0,0,0,0,0,0,0,0,0,0,0],"sum_hessian":[3.4761676E4,2.0475436E4,1.4286241E4,1.1658393E4,8.817042E3,1.0463931E4,3.82231E3,6.6856885E3,4.972704E3,7.6645703E3,1.1524717E3,7.2242886E3,3.2396426E3,2.441359E3,1.3809512E3],"tree_param":{"num_deleted":"0","num_feature":"2355","num_nodes":"15","size_leaf_vector":"1"}},{"base_weights":[8.566553E-6,-2.6741886E-1,3.8330755E-1,-4.8560092E-1,2.1052312E-2,2.2949056E-1,8.044197E-1,-6.575987E-3,-3.779717E-3,-5.6283374E-4,5.3508705E-3,1.3959681E-3,4.2986986E-3,6.3100853E-3,1.1104978E-2],"categories":[],"categories_nodes":[],"categories_segments":[],"categories_sizes":[],"default_left":[0,0,0,0,0,0,0,0,0,0,0,0,0,0,0],"id":14,"left_children":[1,3,5,7,9,11,13,-1,-1,-1,-1,-1,-1,-1,-1],"loss_changes":[3.5629385E3,1.2886318E3,9.2509766E2,2.1555054E2,3.505654E2,1.8843341E2,2.0212646E2,0E0,0E0,0E0,0E0,0E0,0E0,0E0,0E0],"parents":[2147483647,0,0,1,1,2,2,3,3,4,4,5,5,6,6],"right_children":[2,4,6,8,10,12,14,-1,-1,-1,-1,-1,-1,-1,-1],"split_conditions":[2.7871406E-1,-3.3062065E-1,1.8560661E0,-8.256063E-2,3.4307346E0,1.0673901E0,3.433418E0,-6.575987E-3,-3.779717E-3,-5.6283374E-4,5.3508705E-3,1.3959681E-3,4.2986986E-3,6.3100853E-3,1.1104978E-2],"split_indices":[9,1,9,13,1,9,9,0,0,0,0,0,0,0,0],"split_type":[0,0,0,0,0,0,0,0,0,0,0,0,0,0,0],"sum_hessian":[3.4756797E4,2.0473059E4,1.4283736E4,1.1656276E4,8.816781E3,1.0463387E4,3.82035E3,4.4845654E3,7.1717114E3,7.6645527E3,1.1522289E3,7.224185E3,3.239202E3,2.440644E3,1.3797059E3],"tree_param":{"num_deleted":"0","num_feature":"2355","num_nodes":"15","size_leaf_vector":"1"}},{"base_weights":[9.1316415E-6,-2.647776E-1,3.7954727E-1,-4.8083818E-1,2.0843174E-2,2.2720887E-1,7.9681504E-1,-5.974817E-3,-3.2396E-3,-5.572059E-4,5.298592E-3,1.3820324E-3,4.2563407E-3,6.2489556E-3,1.10045625E-2],"categories":[],"categories_nodes":[],"categories_segments":[],"categories_sizes":[],"default_left":[0,0,0,0,0,0,0,0,0,0,0,0,0,0,0],"id":15,"left_children":[1,3,5,7,9,11,13,-1,-1,-1,-1,-1,-1,-1,-1],"loss_changes":[3.492625E3,1.2633384E3,9.076726E2,2.1308032E2,3.43667E2,1.8474207E2,1.9868555E2,0E0,0E0,0E0,0E0,0E0,0E0,0E0,0E0],"parents":[2147483647,0,0,1,1,2,2,3,3,4,4,5,5,6,6],"right_children":[2,4,6,8,10,12,14,-1,-1,-1,-1,-1,-1,-1,-1],"split_conditions":[2.7871406E-1,-3.3062065E-1,1.8560661E0,8.1059873E-1,3.4307346E0,1.0673901E0,3.433418E0,-5.974817E-3,-3.2396E-3,-5.572059E-4,5.298592E-3,1.3820324E-3,4.2563407E-3,6.2489556E-3,1.10045625E-2],"split_indices":[9,1,9,10,1,9,9,0,0,0,0,0,0,0,0],"split_type":[0,0,0,0,0,0,0,0,0,0,0,0,0,0,0],"sum_hessian":[3.4751645E4,2.0470557E4,1.4281086E4,1.1654052E4,8.816505E3,1.0462811E4,3.818276E3,6.6825625E3,4.9714897E3,7.664533E3,1.1519718E3,7.224075E3,3.238735E3,2.4398875E3,1.3783883E3],"tree_param":{"num_deleted":"0","num_feature":"2355","num_nodes":"15","size_leaf_vector":"1"}},{"base_weights":[9.648768E-6,-2.6216432E-1,3.758276E-1,-4.761275E-1,2.0635808E-2,2.2495043E-1,7.893054E-1,-6.463737E-3,-3.6961974E-3,-5.516388E-4,5.246891E-3,1.3682358E-3,4.214432E-3,6.1885207E-3,1.0905623E-2],"categories":[],"categories_nodes":[],"categories_segments":[],"categories_sizes":[],"default_left":[0,0,0,0,0,0,0,0,0,0,0,0,0,0,0],"id":16,"left_children":[1,3,5,7,9,11,13,-1,-1,-1,-1,-1,-1,-1,-1],"loss_changes":[3.4237297E3,1.2385592E3,8.906271E2,2.1105396E2,3.36909E2,1.8112622E2,1.953335E2,0E0,0E0,0E0,0E0,0E0,0E0,0E0,0E0],"parents":[2147483647,0,0,1,1,2,2,3,3,4,4,5,5,6,6],"right_children":[2,4,6,8,10,12,14,-1,-1,-1,-1,-1,-1,-1,-1],"split_conditions":[2.7871406E-1,-3.3062065E-1,1.8560661E0,-8.256063E-2,3.4307346E0,1.0673901E0,3.433418E0,-6.463737E-3,-3.6961974E-3,-5.516388E-4,5.246891E-3,1.3682358E-3,4.214432E-3,6.1885207E-3,1.0905623E-2],"split_indices":[9,1,9,13,1,9,9,0,0,0,0,0,0,0,0],"split_type":[0,0,0,0,0,0,0,0,0,0,0,0,0,0,0],"sum_hessian":[3.4746203E4,2.0467908E4,1.4278295E4,1.1651694E4,8.816215E3,1.0462203E4,3.8160916E3,4.482161E3,7.169533E3,7.664513E3,1.1517013E3,7.223959E3,3.2382437E3,2.4390908E3,1.3770009E3],"tree_param":{"num_deleted":"0","num_feature":"2355","num_nodes":"15","size_leaf_vector":"1"}},{"base_weights":[1.0248657E-5,-2.5957823E-1,3.7214804E-1,-4.714671E-1,2.043088E-2,2.2271512E-1,7.8188884E-1,-5.869242E-3,-3.16224E-3,-5.461234E-4,5.195754E-3,1.354578E-3,4.1729687E-3,6.1287717E-3,1.0808115E-2],"categories":[],"categories_nodes":[],"categories_segments":[],"categories_sizes":[],"default_left":[0,0,0,0,0,0,0,0,0,0,0,0,0,0,0],"id":17,"left_children":[1,3,5,7,9,11,13,-1,-1,-1,-1,-1,-1,-1,-1],"loss_changes":[3.35622E3,1.2142828E3,8.739501E2,2.0863232E2,3.3028705E2,1.775841E2,1.920669E2,0E0,0E0,0E0,0E0,0E0,0E0,0E0,0E0],"parents":[2147483647,0,0,1,1,2,2,3,3,4,4,5,5,6,6],"right_children":[2,4,6,8,10,12,14,-1,-1,-1,-1,-1,-1,-1,-1],"split_conditions":[2.7871406E-1,-3.3062065E-1,1.8560661E0,8.1059873E-1,3.4307346E0,1.0673901E0,3.433418E0,-5.869242E-3,-3.16224E-3,-5.461234E-4,5.195754E-3,1.354578E-3,4.1729687E-3,6.1287717E-3,1.0808115E-2],"split_indices":[9,1,9,10,1,9,9,0,0,0,0,0,0,0,0],"split_type":[0,0,0,0,0,0,0,0,0,0,0,0,0,0,0],"sum_hessian":[3.474051E4,2.0465146E4,1.4275367E4,1.1649236E4,8.81591E3,1.0461566E4,3.813801E3,6.679093E3,4.970143E3,7.664492E3,1.1514174E3,7.223838E3,3.2377285E3,2.4382554E3,1.3755457E3],"tree_param":{"num_deleted":"0","num_feature":"2355","num_nodes":"15","size_leaf_vector":"1"}},{"base_weights":[1.08054355E-5,-2.5701943E-1,3.6850783E-1,-4.668574E-1,2.0227928E-2,2.2050257E-1,7.745631E-1,-6.3538686E-3,-3.6145162E-3,-5.40664E-4,5.1451707E-3,1.3410565E-3,4.1319425E-3,6.0696905E-3,1.0712003E-2],"categories":[],"categories_nodes":[],"categories_segments":[],"categories_sizes":[],"default_left":[0,0,0,0,0,0,0,0,0,0,0,0,0,0,0],"id":18,"left_children":[1,3,5,7,9,11,13,-1,-1,-1,-1,-1,-1,-1,-1],"loss_changes":[3.2900684E3,1.1905E3,8.576312E2,2.066792E2,3.237985E2,1.7411395E2,1.8888208E2,0E0,0E0,0E0,0E0,0E0,0E0,0E0,0E0],"parents":[2147483647,0,0,1,1,2,2,3,3,4,4,5,5,6,6],"right_children":[2,4,6,8,10,12,14,-1,-1,-1,-1,-1,-1,-1,-1],"split_conditions":[2.7871406E-1,-3.3062065E-1,1.8560661E0,-8.256063E-2,3.4307346E0,1.0673901E0,3.433418E0,-6.3538686E-3,-3.6145162E-3,-5.40664E-4,5.1451707E-3,1.3410565E-3,4.1319425E-3,6.0696905E-3,1.0712003E-2],"split_indices":[9,1,9,13,1,9,9,0,0,0,0,0,0,0,0],"split_type":[0,0,0,0,0,0,0,0,0,0,0,0,0,0,0],"sum_hessian":[3.473455E4,2.0462242E4,1.4272309E4,1.1646651E4,8.815592E3,1.0460901E4,3.8114075E3,4.4795054E3,7.1671455E3,7.6644707E3,1.1511207E3,7.223711E3,3.23719E3,2.4373823E3,1.3740251E3],"tree_param":{"num_deleted":"0","num_feature":"2355","num_nodes":"15","size_leaf_vector":"1"}},{"base_weights":[1.1341842E-5,-2.544873E-1,3.6490667E-1,-4.622965E-1,2.0026768E-2,2.1831268E-1,7.6732653E-1,-5.765892E-3,-3.0866172E-3,-5.3526246E-4,5.095135E-3,1.3276739E-3,4.0913452E-3,6.0112732E-3,1.0617248E-2],"categories":[],"categories_nodes":[],"categories_segments":[],"categories_sizes":[],"default_left":[0,0,0,0,0,0,0,0,0,0,0,0,0,0,0],"id":19,"left_children":[1,3,5,7,9,11,13,-1,-1,-1,-1,-1,-1,-1,-1],"loss_changes":[3.2252473E3,1.1671947E3,8.416603E2,2.0430005E2,3.17441E2,1.7071344E2,1.8577612E2,0E0,0E0,0E0,0E0,0E0,0E0,0E0,0E0],"parents":[2147483647,0,0,1,1,2,2,3,3,4,4,5,5,6,6],"right_children":[2,4,6,8,10,12,14,-1,-1,-1,-1,-1,-1,-1,-1],"split_conditions":[2.7871406E-1,-3.3062065E-1,1.8560661E0,8.1059873E-1,3.4307346E0,1.0673901E0,3.433418E0,-5.765892E-3,-3.0866172E-3,-5.3526246E-4,5.095135E-3,1.3276739E-3,4.0913452E-3,6.0112732E-3,1.0617248E-2],"split_indices":[9,1,9,10,1,9,9,0,0,0,0,0,0,0,0],"split_type":[0,0,0,0,0,0,0,0,0,0,0,0,0,0,0],"sum_hessian":[3.4728355E4,2.0459232E4,1.4269123E4,1.1643975E4,8.815259E3,1.0460208E4,3.808915E3,6.6752993E3,4.968675E3,7.664447E3,1.1508119E3,7.223579E3,3.2366294E3,2.4364731E3,1.3724418E3],"tree_param":{"num_deleted":"0","num_feature":"2355","num_nodes":"15","size_leaf_vector":"1"}},{"base_weights":[1.1947334E-5,-2.519816E-1,3.613438E-1,-4.5778486E-1,1.9828077E-2,2.1614502E-1,7.6017725E-1,-6.2463055E-3,-3.534625E-3,-5.2991015E-4,5.0456417E-3,1.3144235E-3,4.051177E-3,5.953504E-3,1.0523817E-2],"categories":[],"categories_nodes":[],"categories_segments":[],"categories_sizes":[],"default_left":[0,0,0,0,0,0,0,0,0,0,0,0,0,0,0],"id":20,"left_children":[1,3,5,7,9,11,13,-1,-1,-1,-1,-1,-1,-1,-1],"loss_changes":[3.161726E3,1.144365E3,8.2602893E2,2.0241992E2,3.1121124E2,1.673825E2,1.8274634E2,0E0,0E0,0E0,0E0,0E0,0E0,0E0,0E0],"parents":[2147483647,0,0,1,1,2,2,3,3,4,4,5,5,6,6],"right_children":[2,4,6,8,10,12,14,-1,-1,-1,-1,-1,-1,-1,-1],"split_conditions":[2.7871406E-1,-3.3062065E-1,1.8560661E0,-8.256063E-2,3.4307346E0,1.0673901E0,3.433418E0,-6.2463055E-3,-3.534625E-3,-5.2991015E-4,5.0456417E-3,1.3144235E-3,4.051177E-3,5.953504E-3,1.0523817E-2],"split_indices":[9,1,9,13,1,9,9,0,0,0,0,0,0,0,0],"split_type":[0,0,0,0,0,0,0,0,0,0,0,0,0,0,0],"sum_hessian":[3.4721906E4,2.0456094E4,1.4265815E4,1.1641179E4,8.814914E3,1.0459489E4,3.8063264E3,4.4766143E3,7.1645645E3,7.6644233E3,1.1504912E3,7.223442E3,3.2360469E3,2.435529E3,1.3707974E3],"tree_param":{"num_deleted":"0","num_feature":"2355","num_nodes":"15","size_leaf_vector":"1"}},{"base_weights":[1.25212055E-5,-2.4950185E-1,3.5781884E-1,-4.5332068E-1,1.9631105E-2,2.139996E-1,7.5311315E-1,-5.664698E-3,-3.0126893E-3,-5.2461436E-4,4.996677E-3,1.3013087E-3,4.0114294E-3,5.8963695E-3,1.0431672E-2],"categories":[],"categories_nodes":[],"categories_segments":[],"categories_sizes":[],"default_left":[0,0,0,0,0,0,0,0,0,0,0,0,0,0,0],"id":21,"left_children":[1,3,5,7,9,11,13,-1,-1,-1,-1,-1,-1,-1,-1],"loss_changes":[3.09948E3,1.1219923E3,8.107257E2,2.0007764E2,3.0510678E2,1.6411835E2,1.7978955E2,0E0,0E0,0E0,0E0,0E0,0E0,0E0,0E0],"parents":[2147483647,0,0,1,1,2,2,3,3,4,4,5,5,6,6],"right_children":[2,4,6,8,10,12,14,-1,-1,-1,-1,-1,-1,-1,-1],"split_conditions":[2.7871406E-1,-3.3062065E-1,1.8560661E0,8.1059873E-1,3.4307346E0,1.0673901E0,3.433418E0,-5.664698E-3,-3.0126893E-3,-5.2461436E-4,4.996677E-3,1.3013087E-3,4.0114294E-3,5.8963695E-3,1.0431672E-2],"split_indices":[9,1,9,10,1,9,9,0,0,0,0,0,0,0,0],"split_type":[0,0,0,0,0,0,0,0,0,0,0,0,0,0,0],"sum_hessian":[3.4715242E4,2.0452855E4,1.4262389E4,1.1638297E4,8.814558E3,1.0458743E4,3.8036455E3,6.6712036E3,4.9670933E3,7.664399E3,1.1501589E3,7.2233E3,3.2354438E3,2.434551E3,1.3690944E3],"tree_param":{"num_deleted":"0","num_feature":"2355","num_nodes":"15","size_leaf_vector":"1"}},{"base_weights":[1.31509105E-5,-2.4704786E-1,3.5433105E-1,-4.489043E-1,1.9436464E-2,2.118758E-1,7.4613273E-1,-6.1409716E-3,-3.4564792E-3,-5.1936787E-4,4.9482384E-3,1.288323E-3,3.972097E-3,5.839866E-3,1.0340777E-2],"categories":[],"categories_nodes":[],"categories_segments":[],"categories_sizes":[],"default_left":[0,0,0,0,0,0,0,0,0,0,0,0,0,0,0],"id":22,"left_children":[1,3,5,7,9,11,13,-1,-1,-1,-1,-1,-1,-1,-1],"loss_changes":[3.0384785E3,1.1000729E3,7.95744E2,1.9827075E2,2.991246E2,1.6092056E2,1.7690259E2,0E0,0E0,0E0,0E0,0E0,0E0,0E0,0E0],"parents":[2147483647,0,0,1,1,2,2,3,3,4,4,5,5,6,6],"right_children":[2,4,6,8,10,12,14,-1,-1,-1,-1,-1,-1,-1,-1],"split_conditions":[2.7871406E-1,-3.3062065E-1,1.8560661E0,-8.256063E-2,3.4307346E0,1.0673901E0,3.433418E0,-6.1409716E-3,-3.4564792E-3,-5.1936787E-4,4.9482384E-3,1.288323E-3,3.972097E-3,5.839866E-3,1.0340777E-2],"split_indices":[9,1,9,13,1,9,9,0,0,0,0,0,0,0,0],"split_type":[0,0,0,0,0,0,0,0,0,0,0,0,0,0,0],"sum_hessian":[3.4708344E4,2.0449494E4,1.4258849E4,1.1635304E4,8.81419E3,1.0457974E4,3.8008752E3,4.4735024E3,7.1618013E3,7.6643745E3,1.1498157E3,7.223153E3,3.2348203E3,2.4335408E3,1.3673346E3],"tree_param":{"num_deleted":"0","num_feature":"2355","num_nodes":"15","size_leaf_vector":"1"}},{"base_weights":[1.35655755E-5,-2.4461944E-1,3.5087997E-1,-4.4453412E-1,1.9243127E-2,2.0977359E-1,7.3923415E-1,-5.5655963E-3,-2.9404082E-3,-5.14181E-4,4.900311E-3,1.2754686E-3,3.9331717E-3,5.783977E-3,1.0251107E-2],"categories":[],"categories_nodes":[],"categories_segments":[],"categories_sizes":[],"default_left":[0,0,0,0,0,0,0,0,0,0,0,0,0,0,0],"id":23,"left_children":[1,3,5,7,9,11,13,-1,-1,-1,-1,-1,-1,-1,-1],"loss_changes":[2.9787007E3,1.07859E3,7.810742E2,1.9596191E2,2.9326266E2,1.5778662E2,1.7408325E2,0E0,0E0,0E0,0E0,0E0,0E0,0E0,0E0],"parents":[2147483647,0,0,1,1,2,2,3,3,4,4,5,5,6,6],"right_children":[2,4,6,8,10,12,14,-1,-1,-1,-1,-1,-1,-1,-1],"split_conditions":[2.7871406E-1,-3.3062065E-1,1.8560661E0,8.1059873E-1,3.4307346E0,1.0673901E0,3.433418E0,-5.5655963E-3,-2.9404082E-3,-5.14181E-4,4.900311E-3,1.2754686E-3,3.9331717E-3,5.783977E-3,1.0251107E-2],"split_indices":[9,1,9,10,1,9,9,0,0,0,0,0,0,0,0],"split_type":[0,0,0,0,0,0,0,0,0,0,0,0,0,0,0],"sum_hessian":[3.470124E4,2.0446041E4,1.4255199E4,1.1632231E4,8.81381E3,1.045718E4,3.7980193E3,6.666824E3,4.9654077E3,7.6643477E3,1.1494618E3,7.223002E3,3.234178E3,2.432499E3,1.3655204E3],"tree_param":{"num_deleted":"0","num_feature":"2355","num_nodes":"15","size_leaf_vector":"1"}},{"base_weights":[1.42316385E-5,-2.4221589E-1,3.4746516E-1,-4.4021034E-1,1.9052448E-2,2.0769265E-1,7.3241603E-1,-6.037799E-3,-3.3800318E-3,-5.0903857E-4,4.8528984E-3,1.2627412E-3,3.8946548E-3,5.728698E-3,1.0162625E-2],"categories":[],"categories_nodes":[],"categories_segments":[],"categories_sizes":[],"default_left":[0,0,0,0,0,0,0,0,0,0,0,0,0,0,0],"id":24,"left_children":[1,3,5,7,9,11,13,-1,-1,-1,-1,-1,-1,-1,-1],"loss_changes":[2.9201152E3,1.0575428E3,7.6670825E2,1.942268E2,2.8751794E2,1.547164E2,1.7132959E2,0E0,0E0,0E0,0E0,0E0,0E0,0E0,0E0],"parents":[2147483647,0,0,1,1,2,2,3,3,4,4,5,5,6,6],"right_children":[2,4,6,8,10,12,14,-1,-1,-1,-1,-1,-1,-1,-1],"split_conditions":[2.7871406E-1,-3.3062065E-1,1.8560661E0,-8.256063E-2,3.4307346E0,1.0673901E0,3.433418E0,-6.037799E-3,-3.3800318E-3,-5.0903857E-4,4.8528984E-3,1.2627412E-3,3.8946548E-3,5.728698E-3,1.0162625E-2],"split_indices":[9,1,9,13,1,9,9,0,0,0,0,0,0,0,0],"split_type":[0,0,0,0,0,0,0,0,0,0,0,0,0,0,0],"sum_hessian":[3.4693918E4,2.0442473E4,1.4251443E4,1.1629055E4,8.813419E3,1.0456363E4,3.7950803E3,4.4701836E3,7.1588706E3,7.664321E3,1.1490977E3,7.222846E3,3.2335168E3,2.4314268E3,1.3636534E3],"tree_param":{"num_deleted":"0","num_feature":"2355","num_nodes":"15","size_leaf_vector":"1"}},{"base_weights":[1.4674978E-5,-2.3983721E-1,3.4408602E-1,-4.359315E-1,1.8863223E-2,2.0563275E-1,7.256764E-1,-5.4685236E-3,-2.8697331E-3,-5.039521E-4,4.8059803E-3,1.2501429E-3,3.8565313E-3,5.674017E-3,1.0075299E-2],"categories":[],"categories_nodes":[],"categories_segments":[],"categories_sizes":[],"default_left":[0,0,0,0,0,0,0,0,0,0,0,0,0,0,0],"id":25,"left_children":[1,3,5,7,9,11,13,-1,-1,-1,-1,-1,-1,-1,-1],"loss_changes":[2.8627012E3,1.0369137E3,7.526383E2,1.9194775E2,2.8188794E2,1.5170694E2,1.6863782E2,0E0,0E0,0E0,0E0,0E0,0E0,0E0,0E0],"parents":[2147483647,0,0,1,1,2,2,3,3,4,4,5,5,6,6],"right_children":[2,4,6,8,10,12,14,-1,-1,-1,-1,-1,-1,-1,-1],"split_conditions":[2.7871406E-1,-3.3062065E-1,1.8560661E0,8.1059873E-1,3.4307346E0,1.0673901E0,3.433418E0,-5.4685236E-3,-2.8697331E-3,-5.039521E-4,4.8059803E-3,1.2501429E-3,3.8565313E-3,5.674017E-3,1.0075299E-2],"split_indices":[9,1,9,10,1,9,9,0,0,0,0,0,0,0,0],"split_type":[0,0,0,0,0,0,0,0,0,0,0,0,0,0,0],"sum_hessian":[3.4686406E4,2.0438822E4,1.4247585E4,1.1625806E4,8.813017E3,1.0455523E4,3.7920615E3,6.6621807E3,4.963625E3,7.664293E3,1.1487235E3,7.222686E3,3.2328376E3,2.4303257E3,1.3617358E3],"tree_param":{"num_deleted":"0","num_feature":"2355","num_nodes":"15","size_leaf_vector":"1"}},{"base_weights":[1.524036E-5,-2.374831E-1,3.4074232E-1,-4.3169796E-1,1.8676072E-2,2.035939E-1,7.190141E-1,-5.9367255E-3,-3.305239E-3,-4.989149E-4,4.7595585E-3,1.2376726E-3,3.8188049E-3,5.619923E-3,9.989107E-3],"categories":[],"categories_nodes":[],"categories_segments":[],"categories_sizes":[],"default_left":[0,0,0,0,0,0,0,0,0,0,0,0,0,0,0],"id":26,"left_children":[1,3,5,7,9,11,13,-1,-1,-1,-1,-1,-1,-1,-1],"loss_changes":[2.806435E3,1.01670056E3,7.388562E2,1.9028467E2,2.7637045E2,1.487579E2,1.6600708E2,0E0,0E0,0E0,0E0,0E0,0E0,0E0,0E0],"parents":[2147483647,0,0,1,1,2,2,3,3,4,4,5,5,6,6],"right_children":[2,4,6,8,10,12,14,-1,-1,-1,-1,-1,-1,-1,-1],"split_conditions":[2.7871406E-1,-3.3062065E-1,1.8560661E0,-8.256063E-2,3.4307346E0,1.0673901E0,3.433418E0,-5.9367255E-3,-3.305239E-3,-4.989149E-4,4.7595585E-3,1.2376726E-3,3.8188049E-3,5.619923E-3,9.989107E-3],"split_indices":[9,1,9,13,1,9,9,0,0,0,0,0,0,0,0],"split_type":[0,0,0,0,0,0,0,0,0,0,0,0,0,0,0],"sum_hessian":[3.467869E4,2.0435062E4,1.424363E4,1.1622458E4,8.812605E3,1.0454664E4,3.7889658E3,4.4666714E3,7.155786E3,7.664265E3,1.1483398E3,7.2225225E3,3.232141E3,2.4291965E3,1.3597693E3],"tree_param":{"num_deleted":"0","num_feature":"2355","num_nodes":"15","size_leaf_vector":"1"}},{"base_weights":[1.5796155E-5,-2.3515299E-1,3.374334E-1,-4.2750812E-1,1.8490892E-2,2.0157565E-1,7.124273E-1,-5.3734225E-3,-2.8006278E-3,-4.9392704E-4,4.7136233E-3,1.7687217E-3,7.6966253E-3,5.5664075E-3,9.904018E-3],"categories":[],"categories_nodes":[],"categories_segments":[],"categories_sizes":[],"default_left":[0,0,0,0,0,0,0,0,0,0,0,0,0,0,0],"id":27,"left_children":[1,3,5,7,9,11,13,-1,-1,-1,-1,-1,-1,-1,-1],"loss_changes":[2.75129E3,9.9689014E2,7.253546E2,1.8803076E2,2.7096295E2,1.4658334E2,1.6343457E2,0E0,0E0,0E0,0E0,0E0,0E0,0E0,0E0],"parents":[2147483647,0,0,1,1,2,2,3,3,4,4,5,5,6,6],"right_children":[2,4,6,8,10,12,14,-1,-1,-1,-1,-1,-1,-1,-1],"split_conditions":[2.7871406E-1,-3.3062065E-1,1.8560661E0,8.1059873E-1,3.4307346E0,3.054599E0,3.433418E0,-5.3734225E-3,-2.8006278E-3,-4.9392704E-4,4.7136233E-3,1.7687217E-3,7.6966253E-3,5.5664075E-3,9.904018E-3],"split_indices":[9,1,9,10,1,1,9,0,0,0,0,0,0,0,0],"split_type":[0,0,0,0,0,0,0,0,0,0,0,0,0,0,0],"sum_hessian":[3.4670805E4,2.0431227E4,1.4239579E4,1.1619044E4,8.812184E3,1.0453782E4,3.7857964E3,6.6572896E3,4.961754E3,7.6642363E3,1.1479471E3,1.0019396E4,4.3438596E2,2.4280405E3,1.357756E3],"tree_param":{"num_deleted":"0","num_feature":"2355","num_nodes":"15","size_leaf_vector":"1"}},{"base_weights":[1.6433087E-5,-1.4054054E-1,5.540689E-1,-3.214576E-1,8.4890805E-2,4.5137614E-1,9.820002E-1,-4.6583624E-3,-8.763432E-4,2.9948904E-4,5.036742E-3,1.4546213E-2,4.4029066E-3,7.6875607E-3,1.1493454E-2],"categories":[],"categories_nodes":[],"categories_segments":[],"categories_sizes":[],"default_left":[0,0,0,0,0,0,0,0,0,0,0,0,0,0,0],"id":28,"left_children":[1,3,5,7,9,11,13,-1,-1,-1,-1,-1,-1,-1,-1],"loss_changes":[2.6995654E3,1.1277299E3,3.0781567E2,5.178198E2,2.8325638E2,6.2294556E1,4.753064E1,0E0,0E0,0E0,0E0,0E0,0E0,0E0,0E0],"parents":[2147483647,0,0,1,1,2,2,3,3,4,4,5,5,6,6],"right_children":[2,4,6,8,10,12,14,-1,-1,-1,-1,-1,-1,-1,-1],"split_conditions":[1.0673901E0,-3.3062065E-1,3.433418E0,-9.7704396E-2,3.4307346E0,2.00001E0,2.9334779E0,-4.6583624E-3,-8.763432E-4,2.9948904E-4,5.036742E-3,1.4546213E-2,4.4029066E-3,7.6875607E-3,1.1493454E-2],"split_indices":[9,1,9,14,1,811,14,0,0,0,0,0,0,0,0],"split_type":[0,0,0,0,0,0,0,0,0,0,0,0,0,0,0],"sum_hessian":[3.466295E4,2.764936E4,7.0135894E3,1.5338896E4,1.2310462E4,5.657892E3,1.3556975E3,9.482657E3,5.85624E3,1.0883662E4,1.4268004E3,6.0411186E1,5.597481E3,5.9856024E2,7.5713727E2],"tree_param":{"num_deleted":"0","num_feature":"2355","num_nodes":"15","size_leaf_vector":"1"}},{"base_weights":[1.761526E-5,-2.3102973E-1,3.3158258E-1,-4.195151E-1,1.7391982E-2,1.9828889E-1,7.000609E-1,-5.8001094E-3,-3.193115E-3,-4.919852E-4,4.6196356E-3,1.7397784E-3,7.575261E-3,5.4703024E-3,9.737104E-3],"categories":[],"categories_nodes":[],"categories_segments":[],"categories_sizes":[],"default_left":[0,0,0,0,0,0,0,0,0,0,0,0,0,0,0],"id":29,"left_children":[1,3,5,7,9,11,13,-1,-1,-1,-1,-1,-1,-1,-1],"loss_changes":[2.6550024E3,9.563684E2,6.989116E2,1.8658337E2,2.6090503E2,1.4198651E2,1.5778076E2,0E0,0E0,0E0,0E0,0E0,0E0,0E0,0E0],"parents":[2147483647,0,0,1,1,2,2,3,3,4,4,5,5,6,6],"right_children":[2,4,6,8,10,12,14,-1,-1,-1,-1,-1,-1,-1,-1],"split_conditions":[2.7871406E-1,-3.3062065E-1,1.8560661E0,-8.256063E-2,3.4307346E0,3.054599E0,3.433418E0,-5.8001094E-3,-3.193115E-3,-4.919852E-4,4.6196356E-3,1.7397784E-3,7.575261E-3,5.4703024E-3,9.737104E-3],"split_indices":[9,1,9,13,1,1,9,0,0,0,0,0,0,0,0],"split_type":[0,0,0,0,0,0,0,0,0,0,0,0,0,0,0],"sum_hessian":[3.4655348E4,2.0423654E4,1.4231692E4,1.1612327E4,8.811327E3,1.0452231E4,3.7794614E3,4.461526E3,7.150801E3,7.6642246E3,1.1471024E3,1.001804E4,4.3419092E2,2.4258655E3,1.353596E3],"tree_param":{"num_deleted":"0","num_feature":"2355","num_nodes":"15","size_leaf_vector":"1"}},{"base_weights":[1.8181681E-5,-1.3798259E-1,5.4443926E-1,-3.156334E-1,8.329895E-2,4.4364476E-1,9.655162E-1,-4.572848E-3,-8.634096E-4,2.9481566E-4,4.9377955E-3,1.438708E-2,4.3265983E-3,7.53477E-3,1.13203125E-2],"categories":[],"categories_nodes":[],"categories_segments":[],"categories_sizes":[],"default_left":[0,0,0,0,0,0,0,0,0,0,0,0,0,0,0],"id":30,"left_children":[1,3,5,7,9,11,13,-1,-1,-1,-1,-1,-1,-1,-1],"loss_changes":[2.6032112E3,1.0866704E3,2.9695728E2,4.9796997E2,2.7193362E2,6.1194946E1,4.6899048E1,0E0,0E0,0E0,0E0,0E0,0E0,0E0,0E0],"parents":[2147483647,0,0,1,1,2,2,3,3,4,4,5,5,6,6],"right_children":[2,4,6,8,10,12,14,-1,-1,-1,-1,-1,-1,-1,-1],"split_conditions":[1.0673901E0,-3.3062065E-1,3.433418E0,-9.7704396E-2,3.4307346E0,2.00001E0,2.9334779E0,-4.572848E-3,-8.634096E-4,2.9481566E-4,4.9377955E-3,1.438708E-2,4.3265983E-3,7.53477E-3,1.13203125E-2],"split_indices":[9,1,9,14,1,811,14,0,0,0,0,0,0,0,0],"split_type":[0,0,0,0,0,0,0,0,0,0,0,0,0,0,0],"sum_hessian":[3.4647184E4,2.7641354E4,7.00583E3,1.5331991E4,1.2309362E4,5.654378E3,1.3514523E3,9.476586E3,5.855405E3,1.0883516E4,1.4258467E3,6.03205E1,5.594057E3,5.9689526E2,7.5455707E2],"tree_param":{"num_deleted":"0","num_feature":"2355","num_nodes":"15","size_leaf_vector":"1"}},{"base_weights":[1.9404592E-5,-2.2698379E-1,3.258433E-1,-4.1167942E-1,1.6321559E-2,1.9505972E-1,6.8795717E-1,-5.203859E-3,-2.6583492E-3,-4.9001386E-4,4.5276517E-3,1.7113371E-3,7.4564763E-3,5.3760363E-3,9.5743025E-3],"categories":[],"categories_nodes":[],"categories_segments":[],"categories_sizes":[],"default_left":[0,0,0,0,0,0,0,0,0,0,0,0,0,0,0],"id":31,"left_children":[1,3,5,7,9,11,13,-1,-1,-1,-1,-1,-1,-1,-1],"loss_changes":[2.5621743E3,9.1748474E2,6.7351636E2,1.838717E2,2.5123427E2,1.3755533E2,1.5238855E2,0E0,0E0,0E0,0E0,0E0,0E0,0E0,0E0],"parents":[2147483647,0,0,1,1,2,2,3,3,4,4,5,5,6,6],"right_children":[2,4,6,8,10,12,14,-1,-1,-1,-1,-1,-1,-1,-1],"split_conditions":[2.7871406E-1,-3.3062065E-1,1.8560661E0,8.1059873E-1,3.4307346E0,3.054599E0,3.433418E0,-5.203859E-3,-2.6583492E-3,-4.9001386E-4,4.5276517E-3,1.7113371E-3,7.4564763E-3,5.3760363E-3,9.5743025E-3],"split_indices":[9,1,9,10,1,1,9,0,0,0,0,0,0,0,0],"split_type":[0,0,0,0,0,0,0,0,0,0,0,0,0,0,0],"sum_hessian":[3.4639266E4,2.0415787E4,1.422348E4,1.1605352E4,8.810436E3,1.0450605E4,3.7728755E3,6.647791E3,4.9575605E3,7.664213E3,1.1462227E3,1.0016639E4,4.3396622E2,2.4236086E3,1.3492667E3],"tree_param":{"num_deleted":"0","num_feature":"2355","num_nodes":"15","size_leaf_vector":"1"}},{"base_weights":[2.000875E-5,-2.2476119E-1,3.2268375E-1,-4.0769657E-1,1.6159669E-2,1.9312395E-1,6.8171567E-1,-5.66743E-3,-3.0844682E-3,-4.8511734E-4,4.484122E-3,1.16898E-3,3.6354146E-3,5.325096E-3,9.494333E-3],"categories":[],"categories_nodes":[],"categories_segments":[],"categories_sizes":[],"default_left":[0,0,0,0,0,0,0,0,0,0,0,0,0,0,0],"id":32,"left_children":[1,3,5,7,9,11,13,-1,-1,-1,-1,-1,-1,-1,-1],"loss_changes":[2.511873E3,8.996478E2,6.61339E2,1.8297559E2,2.4632703E2,1.3571664E2,1.5010266E2,0E0,0E0,0E0,0E0,0E0,0E0,0E0,0E0],"parents":[2147483647,0,0,1,1,2,2,3,3,4,4,5,5,6,6],"right_children":[2,4,6,8,10,12,14,-1,-1,-1,-1,-1,-1,-1,-1],"split_conditions":[2.7871406E-1,-3.3062065E-1,1.8560661E0,-8.256063E-2,3.4307346E0,1.0673901E0,3.433418E0,-5.66743E-3,-3.0844682E-3,-4.8511734E-4,4.484122E-3,1.16898E-3,3.6354146E-3,5.325096E-3,9.494333E-3],"split_indices":[9,1,9,13,1,9,9,0,0,0,0,0,0,0,0],"split_type":[0,0,0,0,0,0,0,0,0,0,0,0,0,0,0],"sum_hessian":[3.4630793E4,2.0411549E4,1.4219244E4,1.1601578E4,8.809972E3,1.0449859E4,3.769385E3,4.4560713E3,7.1455063E3,7.6641836E3,1.1457878E3,7.2214624E3,3.2283967E3,2.4223403E3,1.3470447E3],"tree_param":{"num_deleted":"0","num_feature":"2355","num_nodes":"15","size_leaf_vector":"1"}},{"base_weights":[2.0439866E-5,-2.2256106E-1,3.1956103E-1,-4.0375414E-1,1.5999466E-2,1.912111E-1,6.7554206E-1,-5.1141093E-3,-2.5937685E-3,-4.8026902E-4,4.441039E-3,1.675225E-3,7.365179E-3,5.2746898E-3,9.415315E-3],"categories":[],"categories_nodes":[],"categories_segments":[],"categories_sizes":[],"default_left":[0,0,0,0,0,0,0,0,0,0,0,0,0,0,0],"id":33,"left_children":[1,3,5,7,9,11,13,-1,-1,-1,-1,-1,-1,-1,-1],"loss_changes":[2.4625894E3,8.821639E2,6.493889E2,1.8014905E2,2.4151686E2,1.3486362E2,1.4786353E2,0E0,0E0,0E0,0E0,0E0,0E0,0E0,0E0],"parents":[2147483647,0,0,1,1,2,2,3,3,4,4,5,5,6,6],"right_children":[2,4,6,8,10,12,14,-1,-1,-1,-1,-1,-1,-1,-1],"split_conditions":[2.7871406E-1,-3.3062065E-1,1.8560661E0,8.1059873E-1,3.4307346E0,3.054599E0,3.433418E0,-5.1141093E-3,-2.5937685E-3,-4.8026902E-4,4.441039E-3,1.675225E-3,7.365179E-3,5.2746898E-3,9.415315E-3],"split_indices":[9,1,9,10,1,1,9,0,0,0,0,0,0,0,0],"split_type":[0,0,0,0,0,0,0,0,0,0,0,0,0,0,0],"sum_hessian":[3.4621973E4,2.0407254E4,1.4214721E4,1.1597756E4,8.809498E3,1.0448885E4,3.7658362E3,6.6422983E3,4.9554575E3,7.6641514E3,1.145346E3,1.0015126E4,4.337586E2,2.4210503E3,1.3447858E3],"tree_param":{"num_deleted":"0","num_feature":"2355","num_nodes":"15","size_leaf_vector":"1"}},{"base_weights":[2.0993115E-5,-1.3301483E-1,5.2575463E-1,-3.0463263E-1,8.058282E-2,4.286164E-1,9.337231E-1,-4.4101477E-3,-8.407758E-4,2.886547E-4,4.7558043E-3,1.4162656E-2,4.1772756E-3,7.221026E-3,1.1000685E-2],"categories":[],"categories_nodes":[],"categories_segments":[],"categories_sizes":[],"default_left":[0,0,0,0,0,0,0,0,0,0,0,0,0,0,0],"id":34,"left_children":[1,3,5,7,9,11,13,-1,-1,-1,-1,-1,-1,-1,-1],"loss_changes":[2.4210366E3,1.01267163E3,2.7662476E2,4.6072058E2,2.5141592E2,6.014795E1,4.6499268E1,0E0,0E0,0E0,0E0,0E0,0E0,0E0,0E0],"parents":[2147483647,0,0,1,1,2,2,3,3,4,4,5,5,6,6],"right_children":[2,4,6,8,10,12,14,-1,-1,-1,-1,-1,-1,-1,-1],"split_conditions":[1.0673901E0,-3.3062065E-1,3.433418E0,-9.7704396E-2,3.4307346E0,2.00001E0,2.9334779E0,-4.4101477E-3,-8.407758E-4,2.886547E-4,4.7558043E-3,1.4162656E-2,4.1772756E-3,7.221026E-3,1.1000685E-2],"split_indices":[9,1,9,14,1,811,14,0,0,0,0,0,0,0,0],"split_type":[0,0,0,0,0,0,0,0,0,0,0,0,0,0,0],"sum_hessian":[3.4613215E4,2.7623812E4,6.9894023E3,1.5316857E4,1.2306954E4,5.6469106E3,1.3424916E3,9.46382E3,5.8530376E3,1.0883095E4,1.4238591E3,6.017087E1,5.5867397E3,5.9319055E2,7.493011E2],"tree_param":{"num_deleted":"0","num_feature":"2355","num_nodes":"15","size_leaf_vector":"1"}},{"base_weights":[2.219149E-5,-2.1866901E-1,3.1404215E-1,-3.962214E-1,1.4972703E-2,1.8809958E-1,6.639414E-1,-5.5384557E-3,-2.9791011E-3,-4.783536E-4,4.352763E-3,1.6478349E-3,7.2508976E-3,5.1840455E-3,9.260152E-3],"categories":[],"categories_nodes":[],"categories_segments":[],"categories_sizes":[],"default_left":[0,0,0,0,0,0,0,0,0,0,0,0,0,0,0],"id":35,"left_children":[1,3,5,7,9,11,13,-1,-1,-1,-1,-1,-1,-1,-1],"loss_changes":[2.3765637E3,8.4626465E2,6.2593506E2,1.7945618E2,2.3257916E2,1.306966E2,1.4292395E2,0E0,0E0,0E0,0E0,0E0,0E0,0E0,0E0],"parents":[2147483647,0,0,1,1,2,2,3,3,4,4,5,5,6,6],"right_children":[2,4,6,8,10,12,14,-1,-1,-1,-1,-1,-1,-1,-1],"split_conditions":[2.7871406E-1,-3.3062065E-1,1.8560661E0,-8.256063E-2,3.4307346E0,3.054599E0,3.433418E0,-5.5384557E-3,-2.9791011E-3,-4.783536E-4,4.352763E-3,1.6478349E-3,7.2508976E-3,5.1840455E-3,9.260152E-3],"split_indices":[9,1,9,13,1,1,9,0,0,0,0,0,0,0,0],"split_type":[0,0,0,0,0,0,0,0,0,0,0,0,0,0,0],"sum_hessian":[3.4604754E4,2.0398818E4,1.4205935E4,1.1590274E4,8.808544E3,1.0447135E4,3.7587996E3,4.450337E3,7.1399375E3,7.6641396E3,1.1444045E3,1.0013649E4,4.3348547E2,2.41864E3,1.3401597E3],"tree_param":{"num_deleted":"0","num_feature":"2355","num_nodes":"15","size_leaf_vector":"1"}},{"base_weights":[2.2802062E-5,-1.3059981E-1,5.1668596E-1,-2.9913956E-1,7.908369E-2,4.2130888E-1,9.183862E-1,-4.3296046E-3,-8.2847936E-4,2.8426864E-4,4.662738E-3,1.4013547E-2,4.1051684E-3,7.07832E-3,1.08403545E-2],"categories":[],"categories_nodes":[],"categories_segments":[],"categories_sizes":[],"default_left":[0,0,0,0,0,0,0,0,0,0,0,0,0,0,0],"id":36,"left_children":[1,3,5,7,9,11,13,-1,-1,-1,-1,-1,-1,-1,-1],"loss_changes":[2.3349297E3,9.7597E2,2.6710864E2,4.4310828E2,2.4136806E2,5.9120117E1,4.5927612E1,0E0,0E0,0E0,0E0,0E0,0E0,0E0,0E0],"parents":[2147483647,0,0,1,1,2,2,3,3,4,4,5,5,6,6],"right_children":[2,4,6,8,10,12,14,-1,-1,-1,-1,-1,-1,-1,-1],"split_conditions":[1.0673901E0,-3.3062065E-1,3.433418E0,-9.7704396E-2,3.4307346E0,2.00001E0,2.9334779E0,-4.3296046E-3,-8.2847936E-4,2.8426864E-4,4.662738E-3,1.4013547E-2,4.1051684E-3,7.07832E-3,1.08403545E-2],"split_indices":[9,1,9,14,1,811,14,0,0,0,0,0,0,0,0],"split_type":[0,0,0,0,0,0,0,0,0,0,0,0,0,0,0],"sum_hessian":[3.4595754E4,2.761491E4,6.980845E3,1.5309216E4,1.2305694E4,5.643046E3,1.3377994E3,9.457069E3,5.852146E3,1.0882933E4,1.4227614E3,6.0059677E1,5.5829863E3,5.913793E2,7.464201E2],"tree_param":{"num_deleted":"0","num_feature":"2355","num_nodes":"15","size_leaf_vector":"1"}},{"base_weights":[2.3747594E-5,-2.1484922E-1,3.0862653E-1,-3.888345E-1,1.3972413E-2,1.8504201E-1,6.5257657E-1,-5.451409E-3,-2.9138564E-3,-4.764141E-4,4.2663324E-3,1.6209149E-3,7.1389596E-3,5.0950944E-3,9.108552E-3],"categories":[],"categories_nodes":[],"categories_segments":[],"categories_sizes":[],"default_left":[0,0,0,0,0,0,0,0,0,0,0,0,0,0,0],"id":37,"left_children":[1,3,5,7,9,11,13,-1,-1,-1,-1,-1,-1,-1,-1],"loss_changes":[2.2936133E3,8.118102E2,6.033876E2,1.7628088E2,2.2398341E2,1.2667621E2,1.3819763E2,0E0,0E0,0E0,0E0,0E0,0E0,0E0,0E0],"parents":[2147483647,0,0,1,1,2,2,3,3,4,4,5,5,6,6],"right_children":[2,4,6,8,10,12,14,-1,-1,-1,-1,-1,-1,-1,-1],"split_conditions":[2.7871406E-1,-3.3062065E-1,1.8560661E0,-8.256063E-2,3.4307346E0,3.054599E0,3.433418E0,-5.451409E-3,-2.9138564E-3,-4.764141E-4,4.2663324E-3,1.6209149E-3,7.1389596E-3,5.0950944E-3,9.108552E-3],"split_indices":[9,1,9,13,1,1,9,0,0,0,0,0,0,0,0],"split_type":[0,0,0,0,0,0,0,0,0,0,0,0,0,0,0],"sum_hessian":[3.4587047E4,2.0390158E4,1.419689E4,1.1582594E4,8.807563E3,1.0445324E4,3.7515662E3,4.446263E3,7.136331E3,7.6641274E3,1.1434359E3,1.0012137E4,4.3318713E2,2.416164E3,1.3354022E3],"tree_param":{"num_deleted":"0","num_feature":"2355","num_nodes":"15","size_leaf_vector":"1"}},{"base_weights":[2.4356266E-5,-1.2823018E-1,5.0779146E-1,-2.9375312E-1,7.7616274E-2,4.1413325E-1,9.033981E-1,-4.2506424E-3,-8.164108E-4,2.27767E-3,-5.081563E-4,1.3868067E-2,4.0343646E-3,6.93863E-3,1.0683968E-2],"categories":[],"categories_nodes":[],"categories_segments":[],"categories_sizes":[],"default_left":[0,0,0,0,0,0,0,0,0,0,0,0,0,0,0],"id":38,"left_children":[1,3,5,7,9,11,13,-1,-1,-1,-1,-1,-1,-1,-1],"loss_changes":[2.251956E3,9.406487E2,2.5799048E2,4.2617688E2,2.3731047E2,5.812262E1,4.537854E1,0E0,0E0,0E0,0E0,0E0,0E0,0E0,0E0],"parents":[2147483647,0,0,1,1,2,2,3,3,4,4,5,5,6,6],"right_children":[2,4,6,8,10,12,14,-1,-1,-1,-1,-1,-1,-1,-1],"split_conditions":[1.0673901E0,-3.3062065E-1,3.433418E0,-9.7704396E-2,4.216504E-1,2.00001E0,2.9334779E0,-4.2506424E-3,-8.164108E-4,2.27767E-3,-5.081563E-4,1.3868067E-2,4.0343646E-3,6.93863E-3,1.0683968E-2],"split_indices":[9,1,9,14,1,811,14,0,0,0,0,0,0,0,0],"split_type":[0,0,0,0,0,0,0,0,0,0,0,0,0,0,0],"sum_hessian":[3.4577816E4,2.7605754E4,6.972062E3,1.5301365E4,1.2304388E4,5.6390806E3,1.3329816E3,9.450121E3,5.851244E3,5.672201E3,6.6321865E3,5.994076E1,5.5791396E3,5.895305E2,7.43451E2],"tree_param":{"num_deleted":"0","num_feature":"2355","num_nodes":"15","size_leaf_vector":"1"}},{"base_weights":[2.5303187E-5,-2.1105564E-1,3.0325684E-1,-3.8159016E-1,1.3085049E-2,1.8196298E-1,6.414398E-1,-4.880956E-3,-2.3888515E-3,-4.8101152E-4,4.230333E-3,1.5922792E-3,7.060703E-3,5.007793E-3,8.9603625E-3],"categories":[],"categories_nodes":[],"categories_segments":[],"categories_sizes":[],"default_left":[0,0,0,0,0,0,0,0,0,0,0,0,0,0,0],"id":39,"left_children":[1,3,5,7,9,11,13,-1,-1,-1,-1,-1,-1,-1,-1],"loss_changes":[2.2127979E3,7.791146E2,5.818938E2,1.7582104E2,2.2095728E2,1.2433984E2,1.3367139E2,0E0,0E0,0E0,0E0,0E0,0E0,0E0,0E0],"parents":[2147483647,0,0,1,1,2,2,3,3,4,4,5,5,6,6],"right_children":[2,4,6,8,10,12,14,-1,-1,-1,-1,-1,-1,-1,-1],"split_conditions":[2.7871406E-1,-3.3062065E-1,1.8560661E0,8.1059873E-1,3.4307346E0,3.054599E0,3.433418E0,-4.880956E-3,-2.3888515E-3,-4.8101152E-4,4.230333E-3,1.5922792E-3,7.060703E-3,5.007793E-3,8.9603625E-3],"split_indices":[9,1,9,10,1,1,9,0,0,0,0,0,0,0,0],"split_type":[0,0,0,0,0,0,0,0,0,0,0,0,0,0,0],"sum_hessian":[3.456951E4,2.0381885E4,1.4187626E4,1.1574714E4,8.807172E3,1.0443473E4,3.744153E3,6.626625E3,4.948089E3,7.6641533E3,1.1430188E3,1.0010533E4,4.3293954E2,2.4136284E3,1.3305247E3],"tree_param":{"num_deleted":"0","num_feature":"2355","num_nodes":"15","size_leaf_vector":"1"}},{"base_weights":[2.5815201E-5,-1.2590198E-1,4.9906653E-1,-2.8847006E-1,7.617502E-2,4.07087E-1,8.887434E-1,-4.1727964E-3,-8.0525456E-4,2.2535485E-3,-5.14352E-4,1.3726072E-2,3.9648395E-3,6.8018404E-3,1.0531341E-2],"categories":[],"categories_nodes":[],"categories_segments":[],"categories_sizes":[],"default_left":[0,0,0,0,0,0,0,0,0,0,0,0,0,0,0],"id":40,"left_children":[1,3,5,7,9,11,13,-1,-1,-1,-1,-1,-1,-1,-1],"loss_changes":[2.1719873E3,9.066511E2,2.4924658E2,4.0962866E2,2.342542E2,5.7154297E1,4.485034E1,0E0,0E0,0E0,0E0,0E0,0E0,0E0,0E0],"parents":[2147483647,0,0,1,1,2,2,3,3,4,4,5,5,6,6],"right_children":[2,4,6,8,10,12,14,-1,-1,-1,-1,-1,-1,-1,-1],"split_conditions":[1.0673901E0,-3.3062065E-1,3.433418E0,-9.7704396E-2,4.216504E-1,2.00001E0,2.9334779E0,-4.1727964E-3,-8.0525456E-4,2.2535485E-3,-5.14352E-4,1.3726072E-2,3.9648395E-3,6.8018404E-3,1.0531341E-2],"split_indices":[9,1,9,14,1,811,14,0,0,0,0,0,0,0,0],"split_type":[0,0,0,0,0,0,0,0,0,0,0,0,0,0,0],"sum_hessian":[3.4560066E4,2.7596996E4,6.963071E3,1.5293314E4,1.2303681E4,5.6350215E3,1.3280491E3,9.442948E3,5.850366E3,5.672089E3,6.6315923E3,5.98145E1,5.575207E3,5.876483E2,7.404008E2],"tree_param":{"num_deleted":"0","num_feature":"2355","num_nodes":"15","size_leaf_vector":"1"}},{"base_weights":[2.6776133E-5,-2.073325E-1,2.9798704E-1,-3.7448546E-1,1.2220564E-2,1.7893802E-1,6.3052356E-1,-5.2950997E-3,-2.7789911E-3,-4.854107E-4,4.194754E-3,1.564158E-3,6.9836685E-3,4.9220994E-3,8.815433E-3],"categories":[],"categories_nodes":[],"categories_segments":[],"categories_sizes":[],"default_left":[0,0,0,0,0,0,0,0,0,0,0,0,0,0,0],"id":41,"left_children":[1,3,5,7,9,11,13,-1,-1,-1,-1,-1,-1,-1,-1],"loss_changes":[2.1348857E3,7.477238E2,5.612135E2,1.730581E2,2.1797276E2,1.22055145E2,1.2933276E2,0E0,0E0,0E0,0E0,0E0,0E0,0E0,0E0],"parents":[2147483647,0,0,1,1,2,2,3,3,4,4,5,5,6,6],"right_children":[2,4,6,8,10,12,14,-1,-1,-1,-1,-1,-1,-1,-1],"split_conditions":[2.7871406E-1,-3.3062065E-1,1.8560661E0,-8.256063E-2,3.4307346E0,3.054599E0,3.433418E0,-5.2950997E-3,-2.7789911E-3,-4.854107E-4,4.194754E-3,1.564158E-3,6.9836685E-3,4.9220994E-3,8.815433E-3],"split_indices":[9,1,9,13,1,1,9,0,0,0,0,0,0,0,0],"split_type":[0,0,0,0,0,0,0,0,0,0,0,0,0,0,0],"sum_hessian":[3.455156E4,2.037341E4,1.4178149E4,1.1566642E4,8.806769E3,1.0441574E4,3.7365752E3,4.438389E3,7.1282524E3,7.66417E3,1.1425985E3,1.0008894E4,4.3268005E2,2.4110374E3,1.3255378E3],"tree_param":{"num_deleted":"0","num_feature":"2355","num_nodes":"15","size_leaf_vector":"1"}},{"base_weights":[2.7198284E-5,-1.2361713E-1,4.9050653E-1,-2.8328782E-1,7.4763626E-2,4.0016717E-1,8.7440753E-1,-4.0968778E-3,-7.935881E-4,2.229788E-3,-5.2029913E-4,1.358742E-2,3.8965647E-3,6.667843E-3,1.0382291E-2],"categories":[],"categories_nodes":[],"categories_segments":[],"categories_sizes":[],"default_left":[0,0,0,0,0,0,0,0,0,0,0,0,0,0,0],"id":42,"left_children":[1,3,5,7,9,11,13,-1,-1,-1,-1,-1,-1,-1,-1],"loss_changes":[2.0949167E3,8.739208E2,2.4085522E2,3.9399146E2,2.3123633E2,5.621344E1,4.434149E1,0E0,0E0,0E0,0E0,0E0,0E0,0E0,0E0],"parents":[2147483647,0,0,1,1,2,2,3,3,4,4,5,5,6,6],"right_children":[2,4,6,8,10,12,14,-1,-1,-1,-1,-1,-1,-1,-1],"split_conditions":[1.0673901E0,-3.3062065E-1,3.433418E0,-9.7704396E-2,4.216504E-1,2.00001E0,2.9334779E0,-4.0968778E-3,-7.935881E-4,2.229788E-3,-5.2029913E-4,1.358742E-2,3.8965647E-3,6.667843E-3,1.0382291E-2],"split_indices":[9,1,9,14,1,811,14,0,0,0,0,0,0,0,0],"split_type":[0,0,0,0,0,0,0,0,0,0,0,0,0,0,0],"sum_hessian":[3.454194E4,2.758805E4,6.953889E3,1.5285104E4,1.2302947E4,5.630877E3,1.3230125E3,9.435655E3,5.849448E3,5.6719585E3,6.630989E3,5.9681232E1,5.5711953E3,5.857362E2,7.372763E2],"tree_param":{"num_deleted":"0","num_feature":"2355","num_nodes":"15","size_leaf_vector":"1"}},{"base_weights":[2.8134438E-5,-2.0367803E-1,2.9281467E-1,-3.6751646E-1,1.1378639E-2,1.7596577E-1,6.198209E-1,-4.7297697E-3,-2.2630845E-3,-4.896145E-4,4.1595874E-3,1.5365385E-3,6.907832E-3,4.8379744E-3,8.673626E-3],"categories":[],"categories_nodes":[],"categories_segments":[],"categories_sizes":[],"default_left":[0,0,0,0,0,0,0,0,0,0,0,0,0,0,0],"id":43,"left_children":[1,3,5,7,9,11,13,-1,-1,-1,-1,-1,-1,-1,-1],"loss_changes":[2.0597659E3,7.1758264E2,5.413113E2,1.720343E2,2.1502899E2,1.1982074E2,1.2516992E2,0E0,0E0,0E0,0E0,0E0,0E0,0E0,0E0],"parents":[2147483647,0,0,1,1,2,2,3,3,4,4,5,5,6,6],"right_children":[2,4,6,8,10,12,14,-1,-1,-1,-1,-1,-1,-1,-1],"split_conditions":[2.7871406E-1,-3.3062065E-1,1.8560661E0,8.1059873E-1,3.4307346E0,3.054599E0,3.433418E0,-4.7297697E-3,-2.2630845E-3,-4.896145E-4,4.1595874E-3,1.5365385E-3,6.907832E-3,4.8379744E-3,8.673626E-3],"split_indices":[9,1,9,10,1,1,9,0,0,0,0,0,0,0,0],"split_type":[0,0,0,0,0,0,0,0,0,0,0,0,0,0,0],"sum_hessian":[3.4533246E4,2.0364768E4,1.4168478E4,1.1558415E4,8.806354E3,1.0439629E4,3.728848E3,6.615392E3,4.943023E3,7.6641777E3,1.1421757E3,1.0007221E4,4.3240915E2,2.408396E3,1.3204519E3],"tree_param":{"num_deleted":"0","num_feature":"2355","num_nodes":"15","size_leaf_vector":"1"}},{"base_weights":[2.8608669E-5,-1.2137469E-1,4.8210698E-1,-2.7820435E-1,7.338143E-2,3.933709E-1,8.603773E-1,-4.0220064E-3,-7.8281556E-4,2.2063856E-3,-5.2600756E-4,3.7182786E-3,8.539358E-3,6.536539E-3,1.0236661E-2],"categories":[],"categories_nodes":[],"categories_segments":[],"categories_sizes":[],"default_left":[0,0,0,0,0,0,0,0,0,0,0,0,0,0,0],"id":44,"left_children":[1,3,5,7,9,11,13,-1,-1,-1,-1,-1,-1,-1,-1],"loss_changes":[2.020633E3,8.4240845E2,2.3279688E2,3.7869836E2,2.2825763E2,5.551996E1,4.3850525E1,0E0,0E0,0E0,0E0,0E0,0E0,0E0,0E0],"parents":[2147483647,0,0,1,1,2,2,3,3,4,4,5,5,6,6],"right_children":[2,4,6,8,10,12,14,-1,-1,-1,-1,-1,-1,-1,-1],"split_conditions":[1.0673901E0,-3.3062065E-1,3.433418E0,-9.7704396E-2,4.216504E-1,3.054599E0,2.9334779E0,-4.0220064E-3,-7.8281556E-4,2.2063856E-3,-5.2600756E-4,3.7182786E-3,8.539358E-3,6.536539E-3,1.0236661E-2],"split_indices":[9,1,9,14,1,1,14,0,0,0,0,0,0,0,0],"split_type":[0,0,0,0,0,0,0,0,0,0,0,0,0,0,0],"sum_hessian":[3.4523445E4,2.7578912E4,6.944535E3,1.5276723E4,1.2302188E4,5.6266533E3,1.3178817E3,9.428165E3,5.848558E3,5.671811E3,6.630377E3,5.376952E3,2.4970093E2,5.837977E2,7.3408405E2],"tree_param":{"num_deleted":"0","num_feature":"2355","num_nodes":"15","size_leaf_vector":"1"}},{"base_weights":[2.938547E-5,-2.0009093E-1,2.8773737E-1,-3.6068067E-1,1.05587775E-2,1.7303406E-1,6.0935295E-1,-5.1444573E-3,-2.6494395E-3,-4.93627E-4,4.1248235E-3,1.5100054E-3,6.8177027E-3,4.7558276E-3,8.53481E-3],"categories":[],"categories_nodes":[],"categories_segments":[],"categories_sizes":[],"default_left":[0,0,0,0,0,0,0,0,0,0,0,0,0,0,0],"id":45,"left_children":[1,3,5,7,9,11,13,-1,-1,-1,-1,-1,-1,-1,-1],"loss_changes":[1.9873345E3,6.8864246E2,5.222488E2,1.69906E2,2.1212514E2,1.1690613E2,1.2114404E2,0E0,0E0,0E0,0E0,0E0,0E0,0E0,0E0],"parents":[2147483647,0,0,1,1,2,2,3,3,4,4,5,5,6,6],"right_children":[2,4,6,8,10,12,14,-1,-1,-1,-1,-1,-1,-1,-1],"split_conditions":[2.7871406E-1,-3.3062065E-1,1.8560661E0,-8.256063E-2,3.4307346E0,3.054599E0,3.433418E0,-5.1444573E-3,-2.6494395E-3,-4.93627E-4,4.1248235E-3,1.5100054E-3,6.8177027E-3,4.7558276E-3,8.53481E-3],"split_indices":[9,1,9,13,1,1,9,0,0,0,0,0,0,0,0],"split_type":[0,0,0,0,0,0,0,0,0,0,0,0,0,0,0],"sum_hessian":[3.4514586E4,2.0355953E4,1.4158635E4,1.1550026E4,8.805927E3,1.0437623E4,3.7210115E3,4.4302007E3,7.119826E3,7.664177E3,1.1417499E3,1.0005575E4,4.3204758E2,2.4057346E3,1.3152769E3],"tree_param":{"num_deleted":"0","num_feature":"2355","num_nodes":"15","size_leaf_vector":"1"}},{"base_weights":[2.9787934E-5,-1.1917386E-1,4.738626E-1,-2.732174E-1,7.202799E-2,3.8669428E-1,8.4664005E-1,-3.948987E-3,-7.715367E-4,2.1833295E-3,-5.314757E-4,1.3396465E-2,3.7626615E-3,6.4078276E-3,1.0094298E-2],"categories":[],"categories_nodes":[],"categories_segments":[],"categories_sizes":[],"default_left":[0,0,0,0,0,0,0,0,0,0,0,0,0,0,0],"id":46,"left_children":[1,3,5,7,9,11,13,-1,-1,-1,-1,-1,-1,-1,-1],"loss_changes":[1.9490251E3,8.120685E2,2.2505469E2,3.642516E2,2.253155E2,5.5378113E1,4.3376038E1,0E0,0E0,0E0,0E0,0E0,0E0,0E0,0E0],"parents":[2147483647,0,0,1,1,2,2,3,3,4,4,5,5,6,6],"right_children":[2,4,6,8,10,12,14,-1,-1,-1,-1,-1,-1,-1,-1],"split_conditions":[1.0673901E0,-3.3062065E-1,3.433418E0,-9.7704396E-2,4.216504E-1,2.00001E0,2.9334779E0,-3.948987E-3,-7.715367E-4,2.1833295E-3,-5.314757E-4,1.3396465E-2,3.7626615E-3,6.4078276E-3,1.0094298E-2],"split_indices":[9,1,9,14,1,811,14,0,0,0,0,0,0,0,0],"split_type":[0,0,0,0,0,0,0,0,0,0,0,0,0,0,0],"sum_hessian":[3.4504645E4,2.7569617E4,6.935029E3,1.5268212E4,1.2301405E4,5.6223623E3,1.3126664E3,9.420583E3,5.847628E3,5.6716484E3,6.629757E3,5.947957E1,5.562883E3,5.818362E2,7.308302E2],"tree_param":{"num_deleted":"0","num_feature":"2355","num_nodes":"15","size_leaf_vector":"1"}},{"base_weights":[3.0647654E-5,-1.9656964E-1,2.8275356E-1,-3.5397434E-1,9.76032E-3,1.7016496E-1,5.990567E-1,-4.5841173E-3,-2.142354E-3,-4.9745594E-4,4.090462E-3,1.4833601E-3,6.744372E-3,4.6747155E-3,8.398862E-3],"categories":[],"categories_nodes":[],"categories_segments":[],"categories_sizes":[],"default_left":[0,0,0,0,0,0,0,0,0,0,0,0,0,0,0],"id":47,"left_children":[1,3,5,7,9,11,13,-1,-1,-1,-1,-1,-1,-1,-1],"loss_changes":[1.9174956E3,6.608518E2,5.0379626E2,1.6835278E2,2.0926137E2,1.147832E2,1.17303345E2,0E0,0E0,0E0,0E0,0E0,0E0,0E0,0E0],"parents":[2147483647,0,0,1,1,2,2,3,3,4,4,5,5,6,6],"right_children":[2,4,6,8,10,12,14,-1,-1,-1,-1,-1,-1,-1,-1],"split_conditions":[2.7871406E-1,-3.3062065E-1,1.8560661E0,8.1059873E-1,3.4307346E0,3.054599E0,3.433418E0,-4.5841173E-3,-2.142354E-3,-4.9745594E-4,4.090462E-3,1.4833601E-3,6.744372E-3,4.6747155E-3,8.398862E-3],"split_indices":[9,1,9,10,1,1,9,0,0,0,0,0,0,0,0],"split_type":[0,0,0,0,0,0,0,0,0,0,0,0,0,0,0],"sum_hessian":[3.449563E4,2.0347002E4,1.4148625E4,1.1541514E4,8.805488E3,1.0435597E4,3.713028E3,6.603753E3,4.937761E3,7.664166E3,1.1413218E3,1.0003845E4,4.3175256E2,2.4030066E3,1.3100216E3],"tree_param":{"num_deleted":"0","num_feature":"2355","num_nodes":"15","size_leaf_vector":"1"}},{"base_weights":[3.1058433E-5,-1.170138E-1,4.657712E-1,-2.683249E-1,7.070241E-2,3.8013685E-1,8.3318394E-1,-3.8769501E-3,-7.611385E-4,2.1606155E-3,-5.3671683E-4,1.32656135E-2,3.697983E-3,6.2816213E-3,9.955056E-3],"categories":[],"categories_nodes":[],"categories_segments":[],"categories_sizes":[],"default_left":[0,0,0,0,0,0,0,0,0,0,0,0,0,0,0],"id":48,"left_children":[1,3,5,7,9,11,13,-1,-1,-1,-1,-1,-1,-1,-1],"loss_changes":[1.8800012E3,7.828539E2,2.1760901E2,3.5011255E2,2.2241116E2,5.448944E1,4.2916687E1,0E0,0E0,0E0,0E0,0E0,0E0,0E0,0E0],"parents":[2147483647,0,0,1,1,2,2,3,3,4,4,5,5,6,6],"right_children":[2,4,6,8,10,12,14,-1,-1,-1,-1,-1,-1,-1,-1],"split_conditions":[1.0673901E0,-3.3062065E-1,3.433418E0,-9.7704396E-2,4.216504E-1,2.00001E0,2.9334779E0,-3.8769501E-3,-7.611385E-4,2.1606155E-3,-5.3671683E-4,1.32656135E-2,3.697983E-3,6.2816213E-3,9.955056E-3],"split_indices":[9,1,9,14,1,811,14,0,0,0,0,0,0,0,0],"split_type":[0,0,0,0,0,0,0,0,0,0,0,0,0,0,0],"sum_hessian":[3.4485535E4,2.7560158E4,6.9253774E3,1.525956E4,1.2300599E4,5.618002E3,1.3073752E3,9.412831E3,5.846729E3,5.67147E3,6.6291284E3,5.9331036E1,5.558671E3,5.798546E2,7.275206E2],"tree_param":{"num_deleted":"0","num_feature":"2355","num_nodes":"15","size_leaf_vector":"1"}},{"base_weights":[3.1902266E-5,-1.9311298E-1,2.7786094E-1,-3.4739518E-1,8.98283E-3,1.6734613E-1,5.889546E-1,-4.999208E-3,-2.5249661E-3,-5.0110434E-4,4.05649E-3,1.4571937E-3,6.672146E-3,4.595057E-3,8.265668E-3],"categories":[],"categories_nodes":[],"categories_segments":[],"categories_sizes":[],"default_left":[0,0,0,0,0,0,0,0,0,0,0,0,0,0,0],"id":49,"left_children":[1,3,5,7,9,11,13,-1,-1,-1,-1,-1,-1,-1,-1],"loss_changes":[1.8501532E3,6.341659E2,4.8602307E2,1.6682031E2,2.0643654E2,1.1270572E2,1.136095E2,0E0,0E0,0E0,0E0,0E0,0E0,0E0,0E0],"parents":[2147483647,0,0,1,1,2,2,3,3,4,4,5,5,6,6],"right_children":[2,4,6,8,10,12,14,-1,-1,-1,-1,-1,-1,-1,-1],"split_conditions":[2.7871406E-1,-3.3062065E-1,1.8560661E0,-8.256063E-2,3.4307346E0,3.054599E0,3.433418E0,-4.999208E-3,-2.5249661E-3,-5.0110434E-4,4.05649E-3,1.4571937E-3,6.672146E-3,4.595057E-3,8.265668E-3],"split_indices":[9,1,9,13,1,1,9,0,0,0,0,0,0,0,0],"split_type":[0,0,0,0,0,0,0,0,0,0,0,0,0,0,0],"sum_hessian":[3.447638E4,2.0337906E4,1.4138471E4,1.1532867E4,8.805039E3,1.0433536E4,3.704935E3,4.421749E3,7.111118E3,7.664148E3,1.1408914E3,1.0002088E4,4.314479E2,2.4002402E3,1.304695E3],"tree_param":{"num_deleted":"0","num_feature":"2355","num_nodes":"15","size_leaf_vector":"1"}},{"base_weights":[3.2366283E-5,-1.9122992E-1,2.7518505E-1,-3.4405777E-1,8.89416E-3,1.6568851E-1,5.8373415E-1,-4.0358803E-3,-1.0180697E-3,-4.9609476E-4,4.017729E-3,1.4427226E-3,6.6094813E-3,4.5520267E-3,8.199977E-3],"categories":[],"categories_nodes":[],"categories_segments":[],"categories_sizes":[],"default_left":[0,0,0,0,0,0,0,0,0,0,0,0,0,0,0],"id":50,"left_children":[1,3,5,7,9,11,13,-1,-1,-1,-1,-1,-1,-1,-1],"loss_changes":[1.8139336E3,6.219043E2,4.7743225E2,1.6622632E2,2.0241316E2,1.1056958E2,1.1203833E2,0E0,0E0,0E0,0E0,0E0,0E0,0E0,0E0],"parents":[2147483647,0,0,1,1,2,2,3,3,4,4,5,5,6,6],"right_children":[2,4,6,8,10,12,14,-1,-1,-1,-1,-1,-1,-1,-1],"split_conditions":[2.7871406E-1,-3.3062065E-1,1.8560661E0,5.273203E-1,3.4307346E0,3.054599E0,3.433418E0,-4.0358803E-3,-1.0180697E-3,-4.9609476E-4,4.017729E-3,1.4427226E-3,6.6094813E-3,4.5520267E-3,8.199977E-3],"split_indices":[9,1,9,3,1,1,9,0,0,0,0,0,0,0,0],"split_type":[0,0,0,0,0,0,0,0,0,0,0,0,0,0,0],"sum_hessian":[3.4466176E4,2.0332848E4,1.4133328E4,1.1528336E4,8.804511E3,1.0432593E4,3.700735E3,9.253687E3,2.2746492E3,7.6641196E3,1.1403916E3,1.0001399E4,4.3119376E2,2.398718E3,1.3020171E3],"tree_param":{"num_deleted":"0","num_feature":"2355","num_nodes":"15","size_leaf_vector":"1"}},{"base_weights":[3.2861335E-5,-1.1393466E-1,4.542352E-1,-2.613543E-1,6.88191E-2,3.7092033E-1,8.1349325E-1,-3.7740716E-3,-7.465487E-4,2.1374386E-3,-5.5202114E-4,1.31136775E-2,3.6066826E-3,6.08814E-3,9.757767E-3],"categories":[],"categories_nodes":[],"categories_segments":[],"categories_sizes":[],"default_left":[0,0,0,0,0,0,0,0,0,0,0,0,0,0,0],"id":51,"left_children":[1,3,5,7,9,11,13,-1,-1,-1,-1,-1,-1,-1,-1],"loss_changes":[1.783699E3,7.421546E2,2.0658032E2,3.3033484E2,2.2108801E2,5.364032E1,4.2597717E1,0E0,0E0,0E0,0E0,0E0,0E0,0E0,0E0],"parents":[2147483647,0,0,1,1,2,2,3,3,4,4,5,5,6,6],"right_children":[2,4,6,8,10,12,14,-1,-1,-1,-1,-1,-1,-1,-1],"split_conditions":[1.0673901E0,-3.3062065E-1,3.433418E0,-9.7704396E-2,4.216504E-1,2.00001E0,2.9334779E0,-3.7740716E-3,-7.465487E-4,2.1374386E-3,-5.5202114E-4,1.31136775E-2,3.6066826E-3,6.08814E-3,9.757767E-3],"split_indices":[9,1,9,14,1,811,14,0,0,0,0,0,0,0,0],"split_type":[0,0,0,0,0,0,0,0,0,0,0,0,0,0,0],"sum_hessian":[3.4456082E4,2.7545234E4,6.910845E3,1.5246282E4,1.2298952E4,5.6115205E3,1.2993247E3,9.401354E3,5.844929E3,5.6711807E3,6.6277715E3,5.9144405E1,5.552376E3,5.7670715E2,7.226175E2],"tree_param":{"num_deleted":"0","num_feature":"2355","num_nodes":"15","size_leaf_vector":"1"}},{"base_weights":[3.36317E-5,-1.8786627E-1,2.7042624E-1,-3.3765665E-1,8.143927E-3,1.6294429E-1,5.7391256E-1,-4.410261E-3,-1.9946725E-3,-4.995646E-4,3.9846236E-3,1.417254E-3,6.539199E-3,4.8155882E-3,8.939888E-3],"categories":[],"categories_nodes":[],"categories_segments":[],"categories_sizes":[],"default_left":[0,0,0,0,0,0,0,0,0,0,0,0,0,0,0],"id":52,"left_children":[1,3,5,7,9,11,13,-1,-1,-1,-1,-1,-1,-1,-1],"loss_changes":[1.750229E3,5.9674677E2,4.6062085E2,1.6448035E2,1.9969783E2,1.0858209E2,1.08750244E2,0E0,0E0,0E0,0E0,0E0,0E0,0E0,0E0],"parents":[2147483647,0,0,1,1,2,2,3,3,4,4,5,5,6,6],"right_children":[2,4,6,8,10,12,14,-1,-1,-1,-1,-1,-1,-1,-1],"split_conditions":[2.7871406E-1,-3.3062065E-1,1.8560661E0,8.1059873E-1,3.4307346E0,3.054599E0,4.222094E0,-4.410261E-3,-1.9946725E-3,-4.995646E-4,3.9846236E-3,1.417254E-3,6.539199E-3,4.8155882E-3,8.939888E-3],"split_indices":[9,1,9,10,1,1,9,0,0,0,0,0,0,0,0],"split_type":[0,0,0,0,0,0,0,0,0,0,0,0,0,0,0],"sum_hessian":[3.444675E4,2.0323766E4,1.4122985E4,1.1519714E4,8.804051E3,1.0430487E4,3.6924983E3,6.5888687E3,4.930845E3,7.6640938E3,1.1399574E3,9.999615E3,4.3087268E2,2.8675964E3,8.2490186E2],"tree_param":{"num_deleted":"0","num_feature":"2355","num_nodes":"15","size_leaf_vector":"1"}},{"base_weights":[3.4067845E-5,-1.11872666E-1,4.4650158E-1,-2.5668734E-1,6.7559294E-2,3.6450878E-1,8.011978E-1,-3.705383E-3,-7.3657476E-4,2.1154068E-3,-5.566206E-4,1.29878055E-2,3.54344E-3,5.9808856E-3,9.625059E-3],"categories":[],"categories_nodes":[],"categories_segments":[],"categories_sizes":[],"default_left":[0,0,0,0,0,0,0,0,0,0,0,0,0,0,0],"id":53,"left_children":[1,3,5,7,9,11,13,-1,-1,-1,-1,-1,-1,-1,-1],"loss_changes":[1.7206388E3,7.155353E2,2.0043542E2,3.1751172E2,2.1821721E2,5.2796143E1,4.185547E1,0E0,0E0,0E0,0E0,0E0,0E0,0E0,0E0],"parents":[2147483647,0,0,1,1,2,2,3,3,4,4,5,5,6,6],"right_children":[2,4,6,8,10,12,14,-1,-1,-1,-1,-1,-1,-1,-1],"split_conditions":[1.0673901E0,-3.3062065E-1,3.433418E0,-9.7704396E-2,4.216504E-1,2.00001E0,2.9334779E0,-3.705383E-3,-7.3657476E-4,2.1154068E-3,-5.566206E-4,1.29878055E-2,3.54344E-3,5.9808856E-3,9.625059E-3],"split_indices":[9,1,9,14,1,811,14,0,0,0,0,0,0,0,0],"split_type":[0,0,0,0,0,0,0,0,0,0,0,0,0,0,0],"sum_hessian":[3.4436453E4,2.753546E4,6.9009917E3,1.5237364E4,1.2298096E4,5.606907E3,1.2940845E3,9.393349E3,5.844016E3,5.670973E3,6.627122E3,5.898145E1,5.547926E3,5.7490576E2,7.1917865E2],"tree_param":{"num_deleted":"0","num_feature":"2355","num_nodes":"15","size_leaf_vector":"1"}},{"base_weights":[3.4826306E-5,-1.8456566E-1,2.657521E-1,-3.3138126E-1,7.413772E-3,1.6024819E-1,5.642577E-1,-4.82749E-3,-2.3728113E-3,-5.0286175E-4,3.9518913E-3,1.392244E-3,6.4699524E-3,4.732546E-3,8.806365E-3],"categories":[],"categories_nodes":[],"categories_segments":[],"categories_sizes":[],"default_left":[0,0,0,0,0,0,0,0,0,0,0,0,0,0,0],"id":54,"left_children":[1,3,5,7,9,11,13,-1,-1,-1,-1,-1,-1,-1,-1],"loss_changes":[1.6887963E3,5.726036E2,4.443969E2,1.6385657E2,1.9701903E2,1.0663623E2,1.0568713E2,0E0,0E0,0E0,0E0,0E0,0E0,0E0,0E0],"parents":[2147483647,0,0,1,1,2,2,3,3,4,4,5,5,6,6],"right_children":[2,4,6,8,10,12,14,-1,-1,-1,-1,-1,-1,-1,-1],"split_conditions":[2.7871406E-1,-3.3062065E-1,1.8560661E0,-8.256063E-2,3.4307346E0,3.054599E0,4.222094E0,-4.82749E-3,-2.3728113E-3,-5.0286175E-4,3.9518913E-3,1.392244E-3,6.4699524E-3,4.732546E-3,8.806365E-3],"split_indices":[9,1,9,13,1,1,9,0,0,0,0,0,0,0,0],"split_type":[0,0,0,0,0,0,0,0,0,0,0,0,0,0,0],"sum_hessian":[3.442701E4,2.0314396E4,1.4112617E4,1.1510814E4,8.803581E3,1.0428354E4,3.6842642E3,4.411088E3,7.099727E3,7.6640596E3,1.1395215E3,9.99781E3,4.3054337E2,2.8631924E3,8.210717E2],"tree_param":{"num_deleted":"0","num_feature":"2355","num_nodes":"15","size_leaf_vector":"1"}},{"base_weights":[3.5238467E-5,-1.0984851E-1,4.3890733E-1,-2.5210774E-1,6.6325694E-2,3.5821107E-1,7.891345E-1,-3.6383958E-3,-7.2608975E-4,2.0936993E-3,-5.610087E-4,1.2864658E-2,3.4813245E-3,5.8755493E-3,9.495043E-3],"categories":[],"categories_nodes":[],"categories_segments":[],"categories_sizes":[],"default_left":[0,0,0,0,0,0,0,0,0,0,0,0,0,0,0],"id":55,"left_children":[1,3,5,7,9,11,13,-1,-1,-1,-1,-1,-1,-1,-1],"loss_changes":[1.6598357E3,6.898994E2,1.9450061E2,3.054099E2,2.1538329E2,5.1973267E1,4.1137695E1,0E0,0E0,0E0,0E0,0E0,0E0,0E0,0E0],"parents":[2147483647,0,0,1,1,2,2,3,3,4,4,5,5,6,6],"right_children":[2,4,6,8,10,12,14,-1,-1,-1,-1,-1,-1,-1,-1],"split_conditions":[1.0673901E0,-3.3062065E-1,3.433418E0,-9.7704396E-2,4.216504E-1,2.00001E0,2.9334779E0,-3.6383958E-3,-7.2608975E-4,2.0936993E-3,-5.610087E-4,1.2864658E-2,3.4813245E-3,5.8755493E-3,9.495043E-3],"split_indices":[9,1,9,14,1,811,14,0,0,0,0,0,0,0,0],"split_type":[0,0,0,0,0,0,0,0,0,0,0,0,0,0,0],"sum_hessian":[3.441664E4,2.7525596E4,6.8910435E3,1.5228376E4,1.229722E4,5.6022456E3,1.2887975E3,9.385312E3,5.8430645E3,5.670753E3,6.626467E3,5.881318E1,5.5434326E3,5.730972E2,7.157003E2],"tree_param":{"num_deleted":"0","num_feature":"2355","num_nodes":"15","size_leaf_vector":"1"}},{"base_weights":[3.602284E-5,-1.8132484E-1,2.6116243E-1,-3.2522264E-1,6.702976E-3,1.575993E-1,5.547778E-1,-3.8433315E-3,-8.478958E-4,-5.0599314E-4,3.919522E-3,1.3676841E-3,6.4017233E-3,4.317236E-3,7.8294715E-3],"categories":[],"categories_nodes":[],"categories_segments":[],"categories_sizes":[],"default_left":[0,0,0,0,0,0,0,0,0,0,0,0,0,0,0],"id":56,"left_children":[1,3,5,7,9,11,13,-1,-1,-1,-1,-1,-1,-1,-1],"loss_changes":[1.6295503E3,5.49416E2,4.2875726E2,1.6344727E2,1.9437622E2,1.0473105E2,1.0290076E2,0E0,0E0,0E0,0E0,0E0,0E0,0E0,0E0],"parents":[2147483647,0,0,1,1,2,2,3,3,4,4,5,5,6,6],"right_children":[2,4,6,8,10,12,14,-1,-1,-1,-1,-1,-1,-1,-1],"split_conditions":[2.7871406E-1,-3.3062065E-1,1.8560661E0,5.273203E-1,3.4307346E0,3.054599E0,3.433418E0,-3.8433315E-3,-8.478958E-4,-5.0599314E-4,3.919522E-3,1.3676841E-3,6.4017233E-3,4.317236E-3,7.8294715E-3],"split_indices":[9,1,9,3,1,1,9,0,0,0,0,0,0,0,0],"split_type":[0,0,0,0,0,0,0,0,0,0,0,0,0,0,0],"sum_hessian":[3.4407105E4,2.0304953E4,1.4102151E4,1.1501851E4,8.803103E3,1.0426193E4,3.6759583E3,9.231649E3,2.2702014E3,7.6640186E3,1.139084E3,9.995987E3,4.3020627E2,2.3899333E3,1.2860248E3],"tree_param":{"num_deleted":"0","num_feature":"2355","num_nodes":"15","size_leaf_vector":"1"}},{"base_weights":[3.6454454E-5,-1.0786074E-1,4.3145412E-1,-2.4761067E-1,6.5117516E-2,3.521596E-1,7.767965E-1,-3.572852E-3,-7.153759E-4,2.0723073E-3,-5.651923E-4,1.2745448E-2,3.421659E-3,5.759395E-3,9.368149E-3],"categories":[],"categories_nodes":[],"categories_segments":[],"categories_sizes":[],"default_left":[0,0,0,0,0,0,0,0,0,0,0,0,0,0,0],"id":57,"left_children":[1,3,5,7,9,11,13,-1,-1,-1,-1,-1,-1,-1,-1],"loss_changes":[1.6012186E3,6.651992E2,1.8817957E2,2.9389325E2,2.1258557E2,5.1172485E1,4.0737732E1,0E0,0E0,0E0,0E0,0E0,0E0,0E0,0E0],"parents":[2147483647,0,0,1,1,2,2,3,3,4,4,5,5,6,6],"right_children":[2,4,6,8,10,12,14,-1,-1,-1,-1,-1,-1,-1,-1],"split_conditions":[1.0673901E0,-3.3062065E-1,3.433418E0,-9.7704396E-2,4.216504E-1,2.00001E0,2.9334779E0,-3.572852E-3,-7.153759E-4,2.0723073E-3,-5.651923E-4,1.2745448E-2,3.421659E-3,5.759395E-3,9.368149E-3],"split_indices":[9,1,9,14,1,811,14,0,0,0,0,0,0,0,0],"split_type":[0,0,0,0,0,0,0,0,0,0,0,0,0,0,0],"sum_hessian":[3.439674E4,2.7515809E4,6.88093E3,1.5219484E4,1.2296324E4,5.597663E3,1.2832672E3,9.377367E3,5.842117E3,5.67052E3,6.6258047E3,5.8642128E1,5.539021E3,5.710622E2,7.12205E2],"tree_param":{"num_deleted":"0","num_feature":"2355","num_nodes":"15","size_leaf_vector":"1"}},{"base_weights":[3.716144E-5,-1.7814113E-1,2.566566E-1,-3.1917357E-1,6.0109403E-3,1.851542E-1,6.674538E-1,-4.6946635E-3,-2.2580803E-3,-5.0896493E-4,3.8875092E-3,9.385603E-4,3.2270497E-3,5.369722E-3,8.657445E-3],"categories":[],"categories_nodes":[],"categories_segments":[],"categories_sizes":[],"default_left":[0,0,0,0,0,0,0,0,0,0,0,0,0,0,0],"id":58,"left_children":[1,3,5,7,9,11,13,-1,-1,-1,-1,-1,-1,-1,-1],"loss_changes":[1.5724087E3,5.271335E2,4.138158E2,1.6117969E2,1.9176912E2,1.5072568E2,5.3581116E1,0E0,0E0,0E0,0E0,0E0,0E0,0E0,0E0],"parents":[2147483647,0,0,1,1,2,2,3,3,4,4,5,5,6,6],"right_children":[2,4,6,8,10,12,14,-1,-1,-1,-1,-1,-1,-1,-1],"split_conditions":[2.7871406E-1,-3.3062065E-1,2.644742E0,-8.256063E-2,3.4307346E0,1.0673901E0,2.9334779E0,-4.6946635E-3,-2.2580803E-3,-5.0896493E-4,3.8875092E-3,9.385603E-4,3.2270497E-3,5.369722E-3,8.657445E-3],"split_indices":[9,1,9,13,1,9,14,0,0,0,0,0,0,0,0],"split_type":[0,0,0,0,0,0,0,0,0,0,0,0,0,0,0],"sum_hessian":[3.438712E4,2.0295604E4,1.4091519E4,1.1492989E4,8.802614E3,1.2003645E4,2.0878748E3,4.4023667E3,7.0906226E3,7.6639688E3,1.1386449E3,7.2158604E3,4.7877837E3,1.2614851E3,8.263898E2],"tree_param":{"num_deleted":"0","num_feature":"2355","num_nodes":"15","size_leaf_vector":"1"}},{"base_weights":[3.7431248E-5,-1.7640586E-1,2.5419056E-1,-3.1611267E-1,5.9518265E-3,1.5337242E-1,5.409104E-1,-4.4186767E-3,-2.0476375E-3,-5.0387636E-4,3.8504228E-3,1.3273373E-3,6.318393E-3,4.5279525E-3,8.495441E-3],"categories":[],"categories_nodes":[],"categories_segments":[],"categories_sizes":[],"default_left":[0,0,0,0,0,0,0,0,0,0,0,0,0,0,0],"id":59,"left_children":[1,3,5,7,9,11,13,-1,-1,-1,-1,-1,-1,-1,-1],"loss_changes":[1.5416531E3,5.169568E2,4.071258E2,1.607904E2,1.8803322E2,1.02849594E2,9.92688E1,0E0,0E0,0E0,0E0,0E0,0E0,0E0,0E0],"parents":[2147483647,0,0,1,1,2,2,3,3,4,4,5,5,6,6],"right_children":[2,4,6,8,10,12,14,-1,-1,-1,-1,-1,-1,-1,-1],"split_conditions":[2.7871406E-1,-3.3062065E-1,1.8560661E0,2.63744E-1,3.4307346E0,3.054599E0,4.222094E0,-4.4186767E-3,-2.0476375E-3,-5.0387636E-4,3.8504228E-3,1.3273373E-3,6.318393E-3,4.5279525E-3,8.495441E-3],"split_indices":[9,1,9,10,1,1,9,0,0,0,0,0,0,0,0],"split_type":[0,0,0,0,0,0,0,0,0,0,0,0,0,0,0],"sum_hessian":[3.4376426E4,2.0290354E4,1.4086071E4,1.1488284E4,8.80207E3,1.0422711E4,3.6633606E3,5.393742E3,6.0945415E3,7.6639414E3,1.1381284E3,9.992942E3,4.2976862E2,2.8516726E3,8.116878E2],"tree_param":{"num_deleted":"0","num_feature":"2355","num_nodes":"15","size_leaf_vector":"1"}},{"base_weights":[3.7846483E-5,-1.04872055E-1,4.2021087E-1,-2.4111545E-1,6.363354E-2,3.426658E-1,7.5960124E-1,-3.4778342E-3,-7.004052E-4,2.0520268E-3,-5.7554E-4,1.2598682E-2,3.327538E-3,5.6127696E-3,9.180678E-3],"categories":[],"categories_nodes":[],"categories_segments":[],"categories_sizes":[],"default_left":[0,0,0,0,0,0,0,0,0,0,0,0,0,0,0],"id":60,"left_children":[1,3,5,7,9,11,13,-1,-1,-1,-1,-1,-1,-1,-1],"loss_changes":[1.5149473E3,6.313839E2,1.804552E2,2.7746832E2,2.1096246E2,5.0413086E1,3.959552E1,0E0,0E0,0E0,0E0,0E0,0E0,0E0,0E0],"parents":[2147483647,0,0,1,1,2,2,3,3,4,4,5,5,6,6],"right_children":[2,4,6,8,10,12,14,-1,-1,-1,-1,-1,-1,-1,-1],"split_conditions":[1.0673901E0,-3.3062065E-1,3.433418E0,-9.7704396E-2,4.216504E-1,2.00001E0,2.9334779E0,-3.4778342E-3,-7.004052E-4,2.0520268E-3,-5.7554E-4,1.2598682E-2,3.327538E-3,5.6127696E-3,9.180678E-3],"split_indices":[9,1,9,14,1,811,14,0,0,0,0,0,0,0,0],"split_type":[0,0,0,0,0,0,0,0,0,0,0,0,0,0,0],"sum_hessian":[3.436589E4,2.7500295E4,6.865595E3,1.5205565E4,1.2294729E4,5.590311E3,1.2752842E3,9.3651875E3,5.840378E3,5.6702036E3,6.624525E3,5.841904E1,5.531892E3,5.6842737E2,7.068568E2],"tree_param":{"num_deleted":"0","num_feature":"2355","num_nodes":"15","size_leaf_vector":"1"}},{"base_weights":[3.8544975E-5,-1.7331141E-1,2.4980678E-1,-3.102351E-1,5.282143E-3,1.8012457E-1,6.518202E-1,-3.6887852E-3,-7.1819965E-4,-5.06713E-4,3.81919E-3,9.143031E-4,3.138952E-3,5.2363193E-3,8.473385E-3],"categories":[],"categories_nodes":[],"categories_segments":[],"categories_sizes":[],"default_left":[0,0,0,0,0,0,0,0,0,0,0,0,0,0,0],"id":61,"left_children":[1,3,5,7,9,11,13,-1,-1,-1,-1,-1,-1,-1,-1],"loss_changes":[1.4876167E3,4.9596533E2,3.942079E2,1.6048352E2,1.8552591E2,1.4232773E2,5.1664795E1,0E0,0E0,0E0,0E0,0E0,0E0,0E0,0E0],"parents":[2147483647,0,0,1,1,2,2,3,3,4,4,5,5,6,6],"right_children":[2,4,6,8,10,12,14,-1,-1,-1,-1,-1,-1,-1,-1],"split_conditions":[2.7871406E-1,-3.3062065E-1,2.644742E0,5.273203E-1,3.4307346E0,1.0673901E0,2.9334779E0,-3.6887852E-3,-7.1819965E-4,-5.06713E-4,3.81919E-3,9.143031E-4,3.138952E-3,5.2363193E-3,8.473385E-3],"split_indices":[9,1,9,3,1,9,14,0,0,0,0,0,0,0,0],"split_type":[0,0,0,0,0,0,0,0,0,0,0,0,0,0,0],"sum_hessian":[3.4356176E4,2.0280758E4,1.4075417E4,1.1479186E4,8.801573E3,1.1997331E4,2.0780862E3,9.212598E3,2.2665884E3,7.6638857E3,1.137687E3,7.215142E3,4.782189E3,1.2573828E3,8.2070337E2],"tree_param":{"num_deleted":"0","num_feature":"2355","num_nodes":"15","size_leaf_vector":"1"}},{"base_weights":[3.8866096E-5,-1.7162204E-1,2.4740756E-1,-3.072562E-1,5.230166E-3,1.7835522E-1,6.463664E-1,-4.563089E-3,-2.1473216E-3,-5.016481E-4,3.7827757E-3,9.0518984E-4,3.1087957E-3,5.7689785E-3,1.0043398E-2],"categories":[],"categories_nodes":[],"categories_segments":[],"categories_sizes":[],"default_left":[0,0,0,0,0,0,0,0,0,0,0,0,0,0,0],"id":62,"left_children":[1,3,5,7,9,11,13,-1,-1,-1,-1,-1,-1,-1,-1],"loss_changes":[1.458519E3,4.8638123E2,3.875252E2,1.5816187E2,1.8191235E2,1.3961319E2,5.103894E1,0E0,0E0,0E0,0E0,0E0,0E0,0E0,0E0],"parents":[2147483647,0,0,1,1,2,2,3,3,4,4,5,5,6,6],"right_children":[2,4,6,8,10,12,14,-1,-1,-1,-1,-1,-1,-1,-1],"split_conditions":[2.7871406E-1,-3.3062065E-1,2.644742E0,-8.256063E-2,3.4307346E0,1.0673901E0,5.799446E0,-4.563089E-3,-2.1473216E-3,-5.016481E-4,3.7827757E-3,9.0518984E-4,3.1087957E-3,5.7689785E-3,1.0043398E-2],"split_indices":[9,1,9,13,1,9,9,0,0,0,0,0,0,0,0],"split_type":[0,0,0,0,0,0,0,0,0,0,0,0,0,0,0],"sum_hessian":[3.4345566E4,2.0275639E4,1.4069925E4,1.1474617E4,8.801022E3,1.1995223E4,2.0747021E3,4.3932783E3,7.081339E3,7.663858E3,1.1371647E3,7.214912E3,4.7803105E3,1.7397053E3,3.349969E2],"tree_param":{"num_deleted":"0","num_feature":"2355","num_nodes":"15","size_leaf_vector":"1"}},{"base_weights":[3.9239272E-5,-1.6995077E-1,2.4503149E-1,-3.043109E-1,5.178764E-3,1.7660345E-1,6.4095634E-1,-3.6243564E-3,-6.8105134E-4,-4.966333E-4,3.7467196E-3,8.961695E-4,3.0789326E-3,5.1386063E-3,8.352503E-3],"categories":[],"categories_nodes":[],"categories_segments":[],"categories_sizes":[],"default_left":[0,0,0,0,0,0,0,0,0,0,0,0,0,0,0],"id":63,"left_children":[1,3,5,7,9,11,13,-1,-1,-1,-1,-1,-1,-1,-1],"loss_changes":[1.4299976E3,4.769948E2,3.8095288E2,1.5746338E2,1.7836964E2,1.3695044E2,5.0744873E1,0E0,0E0,0E0,0E0,0E0,0E0,0E0,0E0],"parents":[2147483647,0,0,1,1,2,2,3,3,4,4,5,5,6,6],"right_children":[2,4,6,8,10,12,14,-1,-1,-1,-1,-1,-1,-1,-1],"split_conditions":[2.7871406E-1,-3.3062065E-1,2.644742E0,5.273203E-1,3.4307346E0,1.0673901E0,2.9334779E0,-3.6243564E-3,-6.8105134E-4,-4.966333E-4,3.7467196E-3,8.961695E-4,3.0789326E-3,5.1386063E-3,8.352503E-3],"split_indices":[9,1,9,3,1,9,14,0,0,0,0,0,0,0,0],"split_type":[0,0,0,0,0,0,0,0,0,0,0,0,0,0,0],"sum_hessian":[3.433478E4,2.0270336E4,1.4064443E4,1.1469867E4,8.800469E3,1.1993109E4,2.0713335E3,9.204355E3,2.2655122E3,7.6638296E3,1.1366396E3,7.214681E3,4.778428E3,1.254414E3,8.1691943E2],"tree_param":{"num_deleted":"0","num_feature":"2355","num_nodes":"15","size_leaf_vector":"1"}},{"base_weights":[3.950024E-5,-1.6829441E-1,2.4267852E-1,-3.0138952E-1,5.1277666E-3,1.7486873E-1,6.356017E-1,-4.0274933E-3,-1.6616336E-3,-4.9166987E-4,3.711017E-3,8.872346E-4,3.04936E-3,5.6670043E-3,9.917018E-3],"categories":[],"categories_nodes":[],"categories_segments":[],"categories_sizes":[],"default_left":[0,0,0,0,0,0,0,0,0,0,0,0,0,0,0],"id":64,"left_children":[1,3,5,7,9,11,13,-1,-1,-1,-1,-1,-1,-1,-1],"loss_changes":[1.4020288E3,4.6777838E2,3.74502E2,1.570957E2,1.7489645E2,1.3433939E2,5.0200928E1,0E0,0E0,0E0,0E0,0E0,0E0,0E0,0E0],"parents":[2147483647,0,0,1,1,2,2,3,3,4,4,5,5,6,6],"right_children":[2,4,6,8,10,12,14,-1,-1,-1,-1,-1,-1,-1,-1],"split_conditions":[2.7871406E-1,-3.3062065E-1,2.644742E0,8.1059873E-1,3.4307346E0,1.0673901E0,5.799446E0,-4.0274933E-3,-1.6616336E-3,-4.9166987E-4,3.711017E-3,8.872346E-4,3.04936E-3,5.6670043E-3,9.917018E-3],"split_indices":[9,1,9,10,1,9,9,0,0,0,0,0,0,0,0],"split_type":[0,0,0,0,0,0,0,0,0,0,0,0,0,0,0],"sum_hessian":[3.4324113E4,2.0265188E4,1.4058926E4,1.1465276E4,8.799912E3,1.1990992E4,2.0679336E3,6.5521104E3,4.9131655E3,7.6638E3,1.1361119E3,7.2144497E3,4.7765425E3,1.7348513E3,3.3308224E2],"tree_param":{"num_deleted":"0","num_feature":"2355","num_nodes":"15","size_leaf_vector":"1"}},{"base_weights":[3.9869297E-5,-9.982901E-2,4.011835E-1,-2.3071653E-1,6.184058E-2,3.2616082E-1,7.32212E-1,-3.328311E-3,-6.719902E-4,2.0348958E-3,-5.9449364E-4,3.0559758E-3,7.680507E-3,5.3807097E-3,8.8814935E-3],"categories":[],"categories_nodes":[],"categories_segments":[],"categories_sizes":[],"default_left":[0,0,0,0,0,0,0,0,0,0,0,0,0,0,0],"id":65,"left_children":[1,3,5,7,9,11,13,-1,-1,-1,-1,-1,-1,-1,-1],"loss_changes":[1.3747305E3,5.8140137E2,1.6963525E2,2.5349896E2,2.1121143E2,5.0452637E1,3.7757996E1,0E0,0E0,0E0,0E0,0E0,0E0,0E0,0E0],"parents":[2147483647,0,0,1,1,2,2,3,3,4,4,5,5,6,6],"right_children":[2,4,6,8,10,12,14,-1,-1,-1,-1,-1,-1,-1,-1],"split_conditions":[1.0673901E0,-3.3062065E-1,3.433418E0,-9.7704396E-2,4.216504E-1,3.054599E0,2.9334779E0,-3.328311E-3,-6.719902E-4,2.0348958E-3,-5.9449364E-4,3.0559758E-3,7.680507E-3,5.3807097E-3,8.8814935E-3],"split_indices":[9,1,9,14,1,1,14,0,0,0,0,0,0,0,0],"split_type":[0,0,0,0,0,0,0,0,0,0,0,0,0,0,0],"sum_hessian":[3.4313273E4,2.7474068E4,6.839204E3,1.5182172E4,1.2291897E4,5.5772E3,1.2620039E3,9.345187E3,5.8369854E3,5.669762E3,6.622135E3,5.330823E3,2.4637698E2,5.641237E2,6.978802E2],"tree_param":{"num_deleted":"0","num_feature":"2355","num_nodes":"15","size_leaf_vector":"1"}},{"base_weights":[4.0375253E-5,-1.653444E-1,2.3849918E-1,-2.9577887E-1,4.4840965E-3,1.7189161E-1,6.255676E-1,-4.436151E-3,-2.0408158E-3,-4.944488E-4,3.6813237E-3,8.7856676E-4,2.9887275E-3,5.57434E-3,9.788679E-3],"categories":[],"categories_nodes":[],"categories_segments":[],"categories_sizes":[],"default_left":[0,0,0,0,0,0,0,0,0,0,0,0,0,0,0],"id":66,"left_children":[1,3,5,7,9,11,13,-1,-1,-1,-1,-1,-1,-1,-1],"loss_changes":[1.3529202E3,4.4871204E2,3.6209955E2,1.5522327E2,1.7260454E2,1.2789319E2,4.9096375E1,0E0,0E0,0E0,0E0,0E0,0E0,0E0,0E0],"parents":[2147483647,0,0,1,1,2,2,3,3,4,4,5,5,6,6],"right_children":[2,4,6,8,10,12,14,-1,-1,-1,-1,-1,-1,-1,-1],"split_conditions":[2.7871406E-1,-3.3062065E-1,2.644742E0,-8.256063E-2,3.4307346E0,1.0673901E0,5.799446E0,-4.436151E-3,-2.0408158E-3,-4.944488E-4,3.6813237E-3,8.7856676E-4,2.9887275E-3,5.57434E-3,9.788679E-3],"split_indices":[9,1,9,13,1,9,9,0,0,0,0,0,0,0,0],"split_type":[0,0,0,0,0,0,0,0,0,0,0,0,0,0,0],"sum_hessian":[3.430346E4,2.0255455E4,1.4048006E4,1.145605E4,8.799405E3,1.1986745E4,2.061261E3,4.384091E3,7.071959E3,7.6637383E3,1.1356671E3,7.2141685E3,4.7725767E3,1.7301759E3,3.3108496E2],"tree_param":{"num_deleted":"0","num_feature":"2355","num_nodes":"15","size_leaf_vector":"1"}},{"base_weights":[4.064238E-5,-1.6373461E-1,2.3620935E-1,-2.9294452E-1,4.4400613E-3,1.4212964E-1,5.059731E-1,-3.397341E-3,-4.2243166E-5,-4.895063E-4,3.6462587E-3,1.2173895E-3,6.1553186E-3,4.2209295E-3,8.034108E-3],"categories":[],"categories_nodes":[],"categories_segments":[],"categories_sizes":[],"default_left":[0,0,0,0,0,0,0,0,0,0,0,0,0,0,0],"id":67,"left_children":[1,3,5,7,9,11,13,-1,-1,-1,-1,-1,-1,-1,-1],"loss_changes":[1.3264668E3,4.4005475E2,3.5634192E2,1.547085E2,1.6924387E2,1.00447845E2,9.024768E1,0E0,0E0,0E0,0E0,0E0,0E0,0E0,0E0],"parents":[2147483647,0,0,1,1,2,2,3,3,4,4,5,5,6,6],"right_children":[2,4,6,8,10,12,14,-1,-1,-1,-1,-1,-1,-1,-1],"split_conditions":[2.7871406E-1,-3.3062065E-1,1.8560661E0,8.614565E-1,3.4307346E0,3.054599E0,4.222094E0,-3.397341E-3,-4.2243166E-5,-4.895063E-4,3.6462587E-3,1.2173895E-3,6.1553186E-3,4.2209295E-3,8.034108E-3],"split_indices":[9,1,9,3,1,1,9,0,0,0,0,0,0,0,0],"split_type":[0,0,0,0,0,0,0,0,0,0,0,0,0,0,0],"sum_hessian":[3.42926E4,2.0250117E4,1.4042486E4,1.1451273E4,8.798844E3,1.0412626E4,3.6298604E3,9.854147E3,1.5971254E3,7.663709E3,1.135135E3,9.983852E3,4.2877393E2,2.833271E3,7.965895E2],"tree_param":{"num_deleted":"0","num_feature":"2355","num_nodes":"15","size_leaf_vector":"1"}},{"base_weights":[4.1033392E-5,-9.706123E-2,3.9073935E-1,-2.246911E-1,6.046036E-2,3.1734467E-1,7.162238E-1,-3.6623257E-3,-1.1018E-3,2.0153031E-3,-6.0350297E-4,1.2328405E-2,3.0749354E-3,5.238868E-3,8.71161E-3],"categories":[],"categories_nodes":[],"categories_segments":[],"categories_sizes":[],"default_left":[0,0,0,0,0,0,0,0,0,0,0,0,0,0,0],"id":68,"left_children":[1,3,5,7,9,11,13,-1,-1,-1,-1,-1,-1,-1,-1],"loss_changes":[1.3006582E3,5.5207056E2,1.6280518E2,2.4582275E2,2.0948889E2,4.9861145E1,3.6941406E1,0E0,0E0,0E0,0E0,0E0,0E0,0E0,0E0],"parents":[2147483647,0,0,1,1,2,2,3,3,4,4,5,5,6,6],"right_children":[2,4,6,8,10,12,14,-1,-1,-1,-1,-1,-1,-1,-1],"split_conditions":[1.0673901E0,-3.3062065E-1,3.433418E0,2.63744E-1,4.216504E-1,2.00001E0,2.9334779E0,-3.6623257E-3,-1.1018E-3,2.0153031E-3,-6.0350297E-4,1.2328405E-2,3.0749354E-3,5.238868E-3,8.71161E-3],"split_indices":[9,1,9,10,1,811,14,0,0,0,0,0,0,0,0],"split_type":[0,0,0,0,0,0,0,0,0,0,0,0,0,0,0],"sum_hessian":[3.4282062E4,2.745843E4,6.8236333E3,1.516818E4,1.2290251E4,5.5696807E3,1.2539529E3,6.7824863E3,8.385693E3,5.6694253E3,6.620825E3,5.79726E1,5.511708E3,5.614088E2,6.9254407E2],"tree_param":{"num_deleted":"0","num_feature":"2355","num_nodes":"15","size_leaf_vector":"1"}},{"base_weights":[4.164858E-5,-1.6111942E-1,2.3251411E-1,-2.8792724E-1,3.8167015E-3,1.6766535E-1,6.109861E-1,-4.34424E-3,-1.9712262E-3,-4.921647E-4,3.6172818E-3,8.6325046E-4,2.907108E-3,5.438246E-3,9.608818E-3],"categories":[],"categories_nodes":[],"categories_segments":[],"categories_sizes":[],"default_left":[0,0,0,0,0,0,0,0,0,0,0,0,0,0,0],"id":69,"left_children":[1,3,5,7,9,11,13,-1,-1,-1,-1,-1,-1,-1,-1],"loss_changes":[1.2841298E3,4.2336945E2,3.4431152E2,1.5214679E2,1.670395E2,1.1989227E2,4.7706482E1,0E0,0E0,0E0,0E0,0E0,0E0,0E0,0E0],"parents":[2147483647,0,0,1,1,2,2,3,3,4,4,5,5,6,6],"right_children":[2,4,6,8,10,12,14,-1,-1,-1,-1,-1,-1,-1,-1],"split_conditions":[2.7871406E-1,-3.3062065E-1,2.644742E0,-8.256063E-2,3.4307346E0,1.0673901E0,5.799446E0,-4.34424E-3,-1.9712262E-3,-4.921647E-4,3.6172818E-3,8.6325046E-4,2.907108E-3,5.438246E-3,9.608818E-3],"split_indices":[9,1,9,13,1,9,9,0,0,0,0,0,0,0,0],"split_type":[0,0,0,0,0,0,0,0,0,0,0,0,0,0,0],"sum_hessian":[3.427298E4,2.0241152E4,1.403183E4,1.1442822E4,8.79833E3,1.1980492E4,2.051338E3,4.377207E3,7.065615E3,7.6636406E3,1.1346896E3,7.213587E3,4.7669053E3,1.7231401E3,3.2819778E2],"tree_param":{"num_deleted":"0","num_feature":"2355","num_nodes":"15","size_leaf_vector":"1"}},{"base_weights":[4.1911502E-5,-1.5955094E-1,2.3028216E-1,-2.8516853E-1,3.7792139E-3,1.6601877E-1,6.0589415E-1,-3.423258E-3,-5.312686E-4,-4.8724556E-4,3.582838E-3,8.546468E-4,2.8791942E-3,4.828257E-3,7.956149E-3],"categories":[],"categories_nodes":[],"categories_segments":[],"categories_sizes":[],"default_left":[0,0,0,0,0,0,0,0,0,0,0,0,0,0,0],"id":70,"left_children":[1,3,5,7,9,11,13,-1,-1,-1,-1,-1,-1,-1,-1],"loss_changes":[1.2590239E3,4.1520233E2,3.3849164E2,1.5169629E2,1.6378737E2,1.1760791E2,4.745569E1,0E0,0E0,0E0,0E0,0E0,0E0,0E0,0E0],"parents":[2147483647,0,0,1,1,2,2,3,3,4,4,5,5,6,6],"right_children":[2,4,6,8,10,12,14,-1,-1,-1,-1,-1,-1,-1,-1],"split_conditions":[2.7871406E-1,-3.3062065E-1,2.644742E0,5.273203E-1,3.4307346E0,1.0673901E0,2.9334779E0,-3.423258E-3,-5.312686E-4,-4.8724556E-4,3.582838E-3,8.546468E-4,2.8791942E-3,4.828257E-3,7.956149E-3],"split_indices":[9,1,9,3,1,9,14,0,0,0,0,0,0,0,0],"split_type":[0,0,0,0,0,0,0,0,0,0,0,0,0,0,0],"sum_hessian":[3.4262094E4,2.0235799E4,1.4026297E4,1.1438034E4,8.797765E3,1.1978362E4,2.0479343E3,9.17704E3,2.2609937E3,7.663611E3,1.1341537E3,7.213354E3,4.7650083E3,1.244315E3,8.0361945E2],"tree_param":{"num_deleted":"0","num_feature":"2355","num_nodes":"15","size_leaf_vector":"1"}},{"base_weights":[4.218682E-5,-1.5799631E-1,2.2807187E-1,-2.8243205E-1,3.7422052E-3,1.6438833E-1,6.00852E-1,-3.8186726E-3,-1.4996787E-3,3.0156522E-4,-6.9849375E-3,8.461293E-4,2.8515481E-3,5.3422577E-3,9.49054E-3],"categories":[],"categories_nodes":[],"categories_segments":[],"categories_sizes":[],"default_left":[0,0,0,0,0,0,0,0,0,0,0,0,0,0,0],"id":71,"left_children":[1,3,5,7,9,11,13,-1,-1,-1,-1,-1,-1,-1,-1],"loss_changes":[1.2344038E3,4.0718347E2,3.3277667E2,1.5055219E2,1.6321954E2,1.1536688E2,4.694751E1,0E0,0E0,0E0,0E0,0E0,0E0,0E0,0E0],"parents":[2147483647,0,0,1,1,2,2,3,3,4,4,5,5,6,6],"right_children":[2,4,6,8,10,12,14,-1,-1,-1,-1,-1,-1,-1,-1],"split_conditions":[2.7871406E-1,-3.3062065E-1,2.644742E0,8.1059873E-1,3.6188023E0,1.0673901E0,5.799446E0,-3.8186726E-3,-1.4996787E-3,3.0156522E-4,-6.9849375E-3,8.461293E-4,2.8515481E-3,5.3422577E-3,9.49054E-3],"split_indices":[9,1,9,10,1,9,9,0,0,0,0,0,0,0,0],"split_type":[0,0,0,0,0,0,0,0,0,0,0,0,0,0,0],"sum_hessian":[3.4251344E4,2.0230605E4,1.4020738E4,1.1433409E4,8.797196E3,1.1976231E4,2.044507E3,6.529848E3,4.9035615E3,8.479211E3,3.17985E2,7.2131206E3,4.763111E3,1.7182626E3,3.2624435E2],"tree_param":{"num_deleted":"0","num_feature":"2355","num_nodes":"15","size_leaf_vector":"1"}},{"base_weights":[4.2160686E-5,-1.5645231E-1,2.2588274E-1,-2.797264E-1,3.7039549E-3,1.6277401E-1,5.9584874E-1,-4.24937E-3,-1.8978257E-3,-4.8538976E-4,3.5653338E-3,8.3769654E-4,2.8241703E-3,4.738113E-3,7.844358E-3],"categories":[],"categories_nodes":[],"categories_segments":[],"categories_sizes":[],"default_left":[0,0,0,0,0,0,0,0,0,0,0,0,0,0,0],"id":72,"left_children":[1,3,5,7,9,11,13,-1,-1,-1,-1,-1,-1,-1,-1],"loss_changes":[1.2102537E3,3.9934665E2,3.2715436E2,1.4919922E2,1.6219821E2,1.1316879E2,4.6626648E1,0E0,0E0,0E0,0E0,0E0,0E0,0E0,0E0],"parents":[2147483647,0,0,1,1,2,2,3,3,4,4,5,5,6,6],"right_children":[2,4,6,8,10,12,14,-1,-1,-1,-1,-1,-1,-1,-1],"split_conditions":[2.7871406E-1,-3.3062065E-1,2.644742E0,-8.256063E-2,3.4307346E0,1.0673901E0,2.9334779E0,-4.24937E-3,-1.8978257E-3,-4.8538976E-4,3.5653338E-3,8.3769654E-4,2.8241703E-3,4.738113E-3,7.844358E-3],"split_indices":[9,1,9,13,1,9,14,0,0,0,0,0,0,0,0],"split_type":[0,0,0,0,0,0,0,0,0,0,0,0,0,0,0],"sum_hessian":[3.424128E4,2.0226084E4,1.4015199E4,1.1428608E4,8.797475E3,1.19741E4,2.0410997E3,4.369884E3,7.0587246E3,7.663599E3,1.1338754E3,7.2128867E3,4.7612134E3,1.2413296E3,7.997701E2],"tree_param":{"num_deleted":"0","num_feature":"2355","num_nodes":"15","size_leaf_vector":"1"}},{"base_weights":[4.2362575E-5,-1.5492932E-1,2.2371486E-1,-2.770465E-1,3.6676547E-3,1.3448319E-1,4.8119268E-1,-3.2302393E-3,6.339913E-5,2.9952332E-4,-6.947705E-3,1.1430245E-3,6.0352446E-3,4.0026153E-3,7.7090953E-3],"categories":[],"categories_nodes":[],"categories_segments":[],"categories_sizes":[],"default_left":[0,0,0,0,0,0,0,0,0,0,0,0,0,0,0],"id":73,"left_children":[1,3,5,7,9,11,13,-1,-1,-1,-1,-1,-1,-1,-1],"loss_changes":[1.1865931E3,3.916435E2,3.218322E2,1.4886035E2,1.6153473E2,9.843141E1,8.422986E1,0E0,0E0,0E0,0E0,0E0,0E0,0E0,0E0],"parents":[2147483647,0,0,1,1,2,2,3,3,4,4,5,5,6,6],"right_children":[2,4,6,8,10,12,14,-1,-1,-1,-1,-1,-1,-1,-1],"split_conditions":[2.7871406E-1,-3.3062065E-1,1.8560661E0,8.614565E-1,3.6188023E0,3.054599E0,4.222094E0,-3.2302393E-3,6.339913E-5,2.9952332E-4,-6.947705E-3,1.1430245E-3,6.0352446E-3,4.0026153E-3,7.7090953E-3],"split_indices":[9,1,9,3,1,1,9,0,0,0,0,0,0,0,0],"split_type":[0,0,0,0,0,0,0,0,0,0,0,0,0,0,0],"sum_hessian":[3.4230363E4,2.0220723E4,1.400964E4,1.1423817E4,8.796905E3,1.0405147E4,3.6044917E3,9.828993E3,1.5948242E3,8.478776E3,3.1812903E2,9.977121E3,4.280269E2,2.8193108E3,7.8518085E2],"tree_param":{"num_deleted":"0","num_feature":"2355","num_nodes":"15","size_leaf_vector":"1"}},{"base_weights":[4.2438816E-5,-1.534138E-1,2.2156505E-1,-2.7438793E-1,3.6302686E-3,1.5951252E-1,5.8639675E-1,-3.9537386E-3,-1.6757217E-3,-4.83531E-4,3.5479425E-3,8.16092E-4,2.7756654E-3,5.2051377E-3,9.32289E-3],"categories":[],"categories_nodes":[],"categories_segments":[],"categories_sizes":[],"default_left":[0,0,0,0,0,0,0,0,0,0,0,0,0,0,0],"id":74,"left_children":[1,3,5,7,9,11,13,-1,-1,-1,-1,-1,-1,-1,-1],"loss_changes":[1.1633652E3,3.840961E2,3.169679E2,1.4751929E2,1.6062517E2,1.10070526E2,4.5899475E1,0E0,0E0,0E0,0E0,0E0,0E0,0E0,0E0],"parents":[2147483647,0,0,1,1,2,2,3,3,4,4,5,5,6,6],"right_children":[2,4,6,8,10,12,14,-1,-1,-1,-1,-1,-1,-1,-1],"split_conditions":[2.7871406E-1,-3.3062065E-1,2.644742E0,2.63744E-1,3.4307346E0,1.0673901E0,5.799446E0,-3.9537386E-3,-1.6757217E-3,-4.83531E-4,3.5479425E-3,8.16092E-4,2.7756654E-3,5.2051377E-3,9.32289E-3],"split_indices":[9,1,9,10,1,9,9,0,0,0,0,0,0,0,0],"split_type":[0,0,0,0,0,0,0,0,0,0,0,0,0,0,0],"sum_hessian":[3.4220637E4,2.0216375E4,1.4004263E4,1.1419197E4,8.797179E3,1.1969811E4,2.0344523E3,5.3531714E3,6.066026E3,7.6635874E3,1.133591E3,7.212202E3,4.757608E3,1.7110491E3,3.234032E2],"tree_param":{"num_deleted":"0","num_feature":"2355","num_nodes":"15","size_leaf_vector":"1"}},{"base_weights":[4.2602227E-5,-1.5192035E-1,2.1943836E-1,-2.7175874E-1,3.5944895E-3,1.5794596E-1,5.8151865E-1,-4.156896E-3,-1.8267169E-3,2.9750261E-4,-6.9107437E-3,8.0795866E-4,2.7490135E-3,4.6085715E-3,7.686288E-3],"categories":[],"categories_nodes":[],"categories_segments":[],"categories_sizes":[],"default_left":[0,0,0,0,0,0,0,0,0,0,0,0,0,0,0],"id":75,"left_children":[1,3,5,7,9,11,13,-1,-1,-1,-1,-1,-1,-1,-1],"loss_changes":[1.140621E3,3.7668558E2,3.1161462E2,1.4629706E2,1.598696E2,1.07972595E2,4.5523254E1,0E0,0E0,0E0,0E0,0E0,0E0,0E0,0E0],"parents":[2147483647,0,0,1,1,2,2,3,3,4,4,5,5,6,6],"right_children":[2,4,6,8,10,12,14,-1,-1,-1,-1,-1,-1,-1,-1],"split_conditions":[2.7871406E-1,-3.3062065E-1,2.644742E0,-8.256063E-2,3.6188023E0,1.0673901E0,2.9334779E0,-4.156896E-3,-1.8267169E-3,2.9750261E-4,-6.9107437E-3,8.0795866E-4,2.7490135E-3,4.6085715E-3,7.686288E-3],"split_indices":[9,1,9,13,1,9,14,0,0,0,0,0,0,0,0],"split_type":[0,0,0,0,0,0,0,0,0,0,0,0,0,0,0],"sum_hessian":[3.420976E4,2.0211037E4,1.3998726E4,1.1414429E4,8.796608E3,1.1967681E4,2.0310453E3,4.3625444E3,7.051884E3,8.478338E3,3.1827045E2,7.2119683E3,4.7557124E3,1.2368823E3,7.9416296E2],"tree_param":{"num_deleted":"0","num_feature":"2355","num_nodes":"15","size_leaf_vector":"1"}},{"base_weights":[4.2553664E-5,-1.5043566E-1,2.173324E-1,-2.691552E-1,3.5579405E-3,1.563949E-1,5.766874E-1,-3.2532706E-3,-4.13536E-4,-4.8167194E-4,3.530665E-3,7.9990673E-4,2.7226198E-3,5.1132557E-3,9.209645E-3],"categories":[],"categories_nodes":[],"categories_segments":[],"categories_sizes":[],"default_left":[0,0,0,0,0,0,0,0,0,0,0,0,0,0,0],"id":76,"left_children":[1,3,5,7,9,11,13,-1,-1,-1,-1,-1,-1,-1,-1],"loss_changes":[1.1183058E3,3.6943582E2,3.063568E2,1.4599756E2,1.5906834E2,1.0591495E2,4.5178223E1,0E0,0E0,0E0,0E0,0E0,0E0,0E0,0E0],"parents":[2147483647,0,0,1,1,2,2,3,3,4,4,5,5,6,6],"right_children":[2,4,6,8,10,12,14,-1,-1,-1,-1,-1,-1,-1,-1],"split_conditions":[2.7871406E-1,-3.3062065E-1,2.644742E0,5.273203E-1,3.4307346E0,1.0673901E0,5.799446E0,-3.2532706E-3,-4.13536E-4,-4.8167194E-4,3.530665E-3,7.9990673E-4,2.7226198E-3,5.1132557E-3,9.209645E-3],"split_indices":[9,1,9,3,1,9,9,0,0,0,0,0,0,0,0],"split_type":[0,0,0,0,0,0,0,0,0,0,0,0,0,0,0],"sum_hessian":[3.419969E4,2.020652E4,1.3993171E4,1.1409643E4,8.796876E3,1.1965553E4,2.0276188E3,9.152395E3,2.2572485E3,7.6635757E3,1.1333003E3,7.211734E3,4.7538184E3,1.7061814E3,3.214374E2],"tree_param":{"num_deleted":"0","num_feature":"2355","num_nodes":"15","size_leaf_vector":"1"}},{"base_weights":[4.2874814E-5,-1.4896987E-1,2.1524638E-1,-2.6657254E-1,3.5231586E-3,1.2899356E-1,4.6518242E-1,-3.6420962E-3,-1.3668321E-3,2.955077E-4,-6.8740505E-3,1.090113E-3,5.9387386E-3,3.8608925E-3,7.5013773E-3],"categories":[],"categories_nodes":[],"categories_segments":[],"categories_sizes":[],"default_left":[0,0,0,0,0,0,0,0,0,0,0,0,0,0,0],"id":77,"left_children":[1,3,5,7,9,11,13,-1,-1,-1,-1,-1,-1,-1,-1],"loss_changes":[1.0964381E3,3.6230115E2,3.015027E2,1.4460156E2,1.582241E2,9.655478E1,8.0589294E1,0E0,0E0,0E0,0E0,0E0,0E0,0E0,0E0],"parents":[2147483647,0,0,1,1,2,2,3,3,4,4,5,5,6,6],"right_children":[2,4,6,8,10,12,14,-1,-1,-1,-1,-1,-1,-1,-1],"split_conditions":[2.7871406E-1,-3.3062065E-1,1.8560661E0,8.1059873E-1,3.6188023E0,3.054599E0,4.222094E0,-3.6420962E-3,-1.3668321E-3,2.955077E-4,-6.8740505E-3,1.090113E-3,5.9387386E-3,3.8608925E-3,7.5013773E-3],"split_indices":[9,1,9,10,1,1,9,0,0,0,0,0,0,0,0],"split_type":[0,0,0,0,0,0,0,0,0,0,0,0,0,0,0],"sum_hessian":[3.418897E4,2.0201328E4,1.3987641E4,1.1405023E4,8.796305E3,1.0400091E4,3.5875503E3,6.5098223E3,4.8952007E3,8.4778955E3,3.1840933E2,9.972663E3,4.2742737E2,2.8099622E3,7.775879E2],"tree_param":{"num_deleted":"0","num_feature":"2355","num_nodes":"15","size_leaf_vector":"1"}},{"base_weights":[4.284341E-5,-8.8200785E-2,3.5718614E-1,-2.0628473E-1,5.712708E-2,2.8857067E-1,6.665613E-1,-3.4279723E-3,-9.6067216E-4,1.980051E-3,-6.354654E-4,1.2033799E-2,2.787772E-3,2.4394873E-3,7.3535554E-3],"categories":[],"categories_nodes":[],"categories_segments":[],"categories_sizes":[],"default_left":[0,0,0,0,0,0,0,0,0,0,0,0,0,0,0],"id":78,"left_children":[1,3,5,7,9,11,13,-1,-1,-1,-1,-1,-1,-1,-1],"loss_changes":[1.0772377E3,4.703719E2,1.43568E2,2.274945E2,2.0890834E2,4.9339783E1,3.553949E1,0E0,0E0,0E0,0E0,0E0,0E0,0E0,0E0],"parents":[2147483647,0,0,1,1,2,2,3,3,4,4,5,5,6,6],"right_children":[2,4,6,8,10,12,14,-1,-1,-1,-1,-1,-1,-1,-1],"split_conditions":[1.0673901E0,-3.3062065E-1,3.433418E0,2.63744E-1,4.216504E-1,2.00001E0,2.067426E0,-3.4279723E-3,-9.6067216E-4,1.980051E-3,-6.354654E-4,1.2033799E-2,2.787772E-3,2.4394873E-3,7.3535554E-3],"split_indices":[9,1,9,10,1,811,14,0,0,0,0,0,0,0,0],"split_type":[0,0,0,0,0,0,0,0,0,0,0,0,0,0,0],"sum_hessian":[3.4179074E4,2.7407848E4,6.771229E3,1.512105E4,1.2286798E4,5.5436504E3,1.2275785E3,6.7538267E3,8.367223E3,5.6685366E3,6.618261E3,5.7427788E1,5.4862227E3,1.7249072E2,1.0550878E3],"tree_param":{"num_deleted":"0","num_feature":"2355","num_nodes":"15","size_leaf_vector":"1"}},{"base_weights":[4.328878E-5,-1.4658552E-1,2.118773E-1,-2.6199195E-1,2.9406801E-3,1.5255082E-1,5.6326634E-1,-4.045535E-3,-1.7382812E-3,-4.8702516E-4,3.5195483E-3,1.3321798E-3,6.0251183E-3,4.9868715E-3,9.050209E-3],"categories":[],"categories_nodes":[],"categories_segments":[],"categories_sizes":[],"default_left":[0,0,0,0,0,0,0,0,0,0,0,0,0,0,0],"id":79,"left_children":[1,3,5,7,9,11,13,-1,-1,-1,-1,-1,-1,-1,-1],"loss_changes":[1.0614149E3,3.4847366E2,2.9130914E2,1.4318048E2,1.5858723E2,1.0396277E2,4.410199E1,0E0,0E0,0E0,0E0,0E0,0E0,0E0,0E0],"parents":[2147483647,0,0,1,1,2,2,3,3,4,4,5,5,6,6],"right_children":[2,4,6,8,10,12,14,-1,-1,-1,-1,-1,-1,-1,-1],"split_conditions":[2.7871406E-1,-3.3062065E-1,2.644742E0,-8.256063E-2,3.4307346E0,3.054599E0,5.799446E0,-4.045535E-3,-1.7382812E-3,-4.8702516E-4,3.5195483E-3,1.3321798E-3,6.0251183E-3,4.9868715E-3,9.050209E-3],"split_indices":[9,1,9,13,1,1,9,0,0,0,0,0,0,0,0],"split_type":[0,0,0,0,0,0,0,0,0,0,0,0,0,0,0],"sum_hessian":[3.4169984E4,2.0192973E4,1.3977011E4,1.13963545E4,8.796619E3,1.1959305E4,2.0177056E3,4.353356E3,7.042998E3,